svm_type c_svc
kernel_type polynomial
degree 1
gamma 0.125
coef0 0
nr_class 2
total_sv 1526
rho 2.3688493961685331
label 1 -1
nr_sv 763 763
SV
512 2:0.22973 3:0.226891 4:-0.761062 5:-0.52187 6:-0.656355 7:-0.628703 8:-0.584454 
512 1:-1 2:0.0810811 3:0.0588235 4:-0.778761 5:-0.640517 6:-0.710155 7:-0.705069 8:-0.674141 
512 1:1 2:-0.243243 3:-0.243697 4:-0.849558 5:-0.795644 6:-0.873571 7:-0.897301 8:-0.773792 
512 1:-1 2:-0.216216 3:-0.193277 4:-0.858407 5:-0.820436 6:-0.870881 7:-0.888084 8:-0.803687 
512 2:0.283784 3:0.210084 4:-0.761062 5:-0.460599 6:-0.573638 7:-0.448321 8:-0.604385 
512 2:0.0135135 3:0.00840336 4:-0.814159 5:-0.631309 6:-0.682582 7:-0.694536 8:-0.714001 
512 1:-1 2:-0.243243 3:-0.210084 4:-0.840708 5:-0.769435 6:-0.821116 7:-0.774852 8:-0.823617 
512 2:0.0405405 3:0.0756303 4:-0.787611 5:-0.675226 6:-0.762609 7:-0.711652 8:-0.704036 
512 2:0.216216 3:0.243697 4:-0.716814 5:-0.409598 6:-0.524546 7:-0.439105 8:-0.514699 
512 1:1 2:0.202703 3:0.193277 4:-0.787611 5:-0.579954 6:-0.680565 7:-0.709019 8:-0.624315 
512 1:-1 2:-0.121622 3:-0.109244 4:-0.831858 5:-0.786789 6:-0.821789 7:-0.843318 8:-0.803687 
512 1:-1 2:-0.108108 3:-0.142857 4:-0.823009 5:-0.728706 6:-0.768662 7:-0.760369 8:-0.783757 
512 2:0.148649 3:0.159664 4:-0.752212 5:-0.532849 6:-0.656355 7:-0.539171 8:-0.564524 
512 1:-1 3:-0.00840336 4:-0.787611 5:-0.687976 6:-0.743107 7:-0.749835 8:-0.733931 
512 1:-1 2:0.0675676 3:0.109244 4:-0.761062 5:-0.58385 6:-0.629455 7:-0.685319 8:-0.664175 
512 2:0.162162 3:0.159664 4:-0.778761 5:-0.588454 6:-0.670477 7:-0.658986 8:-0.65421 
512 1:-1 2:0.0135135 3:-0.0252101 4:-0.814159 5:-0.709934 6:-0.759247 7:-0.705069 8:-0.733931 
512 1:-1 2:0.162162 3:0.176471 4:-0.80531 5:-0.558704 6:-0.591123 7:-0.579987 8:-0.65421 
512 1:-1 2:0.202703 3:0.159664 4:-0.787611 5:-0.590579 6:-0.686617 7:-0.655036 8:-0.63428 
512 2:-0.121622 3:-0.109244 4:-0.80531 5:-0.751372 6:-0.812374 7:-0.741935 8:-0.803687 
512 1:-1 2:0.405405 3:0.411765 4:-0.752212 5:-0.332743 6:-0.513786 7:-0.503621 8:-0.375187 
512 2:0.351351 3:0.310924 4:-0.752212 5:-0.334868 6:-0.484196 7:-0.337722 8:-0.434978 
512 2:0.0405405 3:0.00840336 4:-0.769912 5:-0.635205 6:-0.704775 7:-0.701119 8:-0.674141 
512 1:-1 2:0.243243 3:0.277311 4:-0.734513 5:-0.48787 6:-0.639543 7:-0.636603 8:-0.504733 
512 1:-1 2:0.0675676 3:0.0756303 4:-0.769912 5:-0.630954 6:-0.713517 7:-0.65372 8:-0.714001 
512 1:-1 2:0.0675676 3:0.0588235 4:-0.769912 5:-0.631309 6:-0.731002 7:-0.651086 8:-0.674141 
512 2:0.175676 3:0.12605 4:-0.761062 5:-0.552683 6:-0.690652 7:-0.529954 8:-0.604385 
512 2:-0.027027 3:0.142857 4:-0.814159 5:-0.743935 6:-0.818426 7:-0.743252 8:-0.743896 
512 1:-1 2:0.135135 3:0.142857 4:-0.778761 5:-0.61785 6:-0.68191 7:-0.647136 8:-0.694071 
512 1:-1 2:0.0540541 3:0.0252101 4:-0.814159 5:-0.696122 6:-0.770007 7:-0.719552 8:-0.65421 
512 1:-1 2:-0.0540541 3:-0.00840336 4:-0.814159 5:-0.723039 6:-0.826496 7:-0.835418 8:-0.674141 
512 2:0.310811 3:0.260504 4:-0.734513 5:-0.376306 6:-0.535306 7:-0.548387 8:-0.385152 
512 2:0.0675676 3:0.0420168 4:-0.814159 5:-0.703559 6:-0.782112 7:-0.728769 8:-0.723966 
512 2:-0.0135135 3:-0.00840336 4:-0.778761 5:-0.715601 6:-0.765972 7:-0.835418 8:-0.745889 
512 2:-0.0540541 3:-0.0756303 4:-0.79646 5:-0.71383 6:-0.781439 7:-0.788018 8:-0.732935 
512 2:-0.108108 3:-0.092437 4:-0.80531 5:-0.749602 6:-0.798252 7:-0.835418 8:-0.769806 
512 1:-1 2:-0.189189 3:-0.226891 4:-0.831858 5:-0.822206 6:-0.872226 7:-0.849901 8:-0.818635 
512 2:0.432432 3:0.495798 4:-0.672566 5:-0.209138 6:-0.370545 7:-0.320606 8:-0.335326 
512 2:0.22973 3:0.142857 4:-0.743363 5:-0.452453 6:-0.587088 7:-0.556287 8:-0.494768 
512 1:-1 2:0.216216 3:0.277311 4:-0.725664 5:-0.247034 6:-0.34768 7:-0.387755 8:-0.434978 
512 2:0.202703 3:0.176471 4:-0.79646 5:-0.451744 6:-0.570948 7:-0.515471 8:-0.564524 
512 2:0.378378 3:0.361345 4:-0.699115 5:-0.340889 6:-0.510424 7:-0.287689 8:-0.425012 
512 1:1 2:-0.243243 3:-0.260504 4:-0.849558 5:-0.845582 6:-0.877606 7:-0.843318 8:-0.704036 
512 2:0.0135135 3:-0.0252101 4:-0.787611 5:-0.706393 6:-0.778749 7:-0.751152 8:-0.733931 
512 1:-1 2:-0.0675676 3:-0.0588235 4:-0.79646 5:-0.740039 6:-0.771352 7:-0.814352 8:-0.763827 
512 2:-0.0135135 3:-0.0420168 4:-0.752212 5:-0.659996 6:-0.751177 7:-0.715602 8:-0.684106 
512 1:1 2:-0.121622 3:-0.176471 4:-0.80531 5:-0.778289 6:-0.854741 7:-0.824885 8:-0.763827 
512 1:1 2:-0.027027 3:-0.0420168 4:-0.80531 5:-0.732601 6:-0.800269 7:-0.777485 8:-0.763827 
512 1:-1 2:0.148649 3:0.176471 4:-0.752212 5:-0.565433 6:-0.677202 7:-0.644503 8:-0.59442 
512 1:-1 2:0.0135135 3:-0.00840336 4:-0.769912 5:-0.67558 6:-0.767317 7:-0.709019 8:-0.733931 
512 3:-0.092437 4:-0.778761 5:-0.679122 6:-0.761264 7:-0.705069 8:-0.723966 
512 2:0.121622 3:0.0756303 4:-0.734513 5:-0.593767 6:-0.705447 7:-0.62212 8:-0.624315 
512 2:0.148649 3:0.0588235 4:-0.761062 5:-0.682663 6:-0.770679 7:-0.723502 8:-0.694071 
125.83670498101547 1:1 2:-1 3:-1 4:-0.982301 5:-1 6:-1 7:-1 8:-1 
512 1:-1 2:-0.256757 3:-0.260504 4:-0.80531 5:-0.794227 6:-0.836584 7:-0.834101 8:-0.822621 
512 1:-1 2:0.0675676 3:0.12605 4:-0.734513 5:-0.551266 6:-0.707465 7:-0.768269 8:-0.494768 
512 2:0.027027 3:0.00840336 4:-0.787611 5:-0.683018 6:-0.763282 7:-0.727452 8:-0.704036 
512 1:-1 2:-0.0135135 3:0.00840336 4:-0.778761 5:-0.663184 6:-0.823806 7:-0.786702 8:-0.624315 
512 1:1 2:0.0135135 3:0.00840336 4:-0.80531 5:-0.676642 6:-0.740417 7:-0.824885 8:-0.723966 
512 1:-1 2:-0.297297 3:-0.294118 4:-0.814159 5:-0.844165 6:-0.875588 7:-0.853851 8:-0.853513 
512 1:-1 2:-0.22973 3:-0.193277 4:-0.814159 5:-0.830707 6:-0.885003 7:-0.861751 8:-0.813652 
512 2:0.0405405 3:0.243697 4:-0.725664 5:-0.472995 6:-0.597176 7:-0.601053 8:-0.524664 
512 2:0.216216 3:0.226891 4:-0.716814 5:-0.465911 6:-0.632145 7:-0.545754 8:-0.454908 
512 1:1 2:-0.189189 3:-0.159664 4:-0.79646 5:-0.809102 6:-0.877606 7:-0.806452 8:-0.823617 
512 2:0.445946 3:0.478992 4:-0.672566 5:-0.1847 6:-0.28043 7:-0.23634 8:-0.514699 
512 1:-1 2:0.364865 3:0.344538 4:-0.699115 5:-0.34266 6:-0.452589 7:-0.319289 8:-0.564524 
512 2:0.027027 3:0.0588235 4:-0.814159 5:-0.652559 6:-0.710827 7:-0.673469 8:-0.733931 
512 1:-1 2:0.0675676 3:0.092437 4:-0.743363 5:-0.585975 6:-0.680565 7:-0.62212 8:-0.63428 
512 2:0.108108 3:0.0420168 4:-0.787611 5:-0.584558 6:-0.638198 7:-0.656353 8:-0.65421 
512 1:-1 2:0.189189 3:0.344538 4:-0.761062 5:-0.489641 6:-0.604573 7:-0.573404 8:-0.534629 
512 2:-0.027027 3:-0.092437 4:-0.80531 5:-0.694351 6:-0.761937 7:-0.741935 8:-0.694071 
512 1:-1 2:0.0135135 3:0.00840336 4:-0.79646 5:-0.662121 6:-0.715535 7:-0.726136 8:-0.704036 
512 1:-1 2:0.337838 3:0.294118 4:-0.831858 5:-0.415619 6:-0.544721 7:-0.418038 8:-0.534629 
512 2:0.310811 3:0.344538 4:-0.663717 5:-0.495661 6:-0.620713 7:-0.661619 8:-0.454908 
512 2:0.22973 3:0.294118 4:-0.761062 5:-0.446432 6:-0.580363 7:-0.549704 8:-0.567514 
512 2:0.0540541 3:-0.00840336 4:-0.79646 5:-0.703205 6:-0.790854 7:-0.761685 8:-0.734928 
512 1:-1 2:-0.162162 3:-0.176471 4:-0.831858 5:-0.831415 6:-0.882313 7:-0.845951 8:-0.833582 
512 1:-1 3:-0.00840336 4:-0.79646 5:-0.745352 6:-0.790854 7:-0.818302 8:-0.769806 
512 2:-0.0135135 3:-0.0420168 4:-0.814159 5:-0.743581 6:-0.802286 7:-0.789335 8:-0.768809 
512 2:0.283784 3:0.260504 4:-0.752212 5:-0.496016 6:-0.656355 7:-0.511521 8:-0.554559 
512 1:-1 2:-0.324324 3:-0.378151 4:-0.867257 5:-0.891624 6:-0.937458 7:-0.907834 8:-0.883408 
512 2:-0.0405405 3:-0.0420168 4:-0.787611 5:-0.724455 6:-0.792199 7:-0.751152 8:-0.72297 
512 1:1 2:0.0675676 3:0.0252101 4:-0.769912 5:-0.631309 6:-0.735037 7:-0.720869 8:-0.674141 
512 1:-1 2:-0.22973 3:-0.193277 4:-0.823009 5:-0.852311 6:-0.912576 7:-0.863068 8:-0.853513 
512 1:-1 2:-0.243243 3:-0.294118 4:-0.840708 5:-0.882415 6:-0.934095 7:-0.893351 8:-0.877429 
512 1:-1 2:0.0945946 3:0.0756303 4:-0.743363 5:-0.451036 6:-0.710827 7:-0.658986 8:-0.664175 
512 2:0.0810811 3:0.0252101 4:-0.778761 5:-0.684788 6:-0.773369 7:-0.788018 8:-0.723966 
512 2:-0.027027 3:-0.092437 4:-0.79646 5:-0.724101 6:-0.794217 7:-0.753785 8:-0.763827 
512 1:-1 2:-0.175676 3:-0.210084 4:-0.787611 5:-0.800956 6:-0.843309 7:-0.828835 8:-0.833582 
512 3:-0.0756303 4:-0.814159 5:-0.680893 6:-0.759247 7:-0.730086 8:-0.757848 
512 1:-1 2:-0.121622 3:-0.176471 4:-0.778761 5:-0.706039 6:-0.744452 7:-0.764319 8:-0.768809 
512 1:-1 2:-0.243243 3:-0.294118 4:-0.849558 5:-0.85904 6:-0.908541 7:-0.861751 8:-0.864474 
512 1:-1 2:0.202703 3:0.109244 4:-0.752212 5:-0.534266 6:-0.667115 7:-0.465438 8:-0.684106 
512 1:-1 2:-0.27027 3:-0.277311 4:-0.831858 5:-0.861874 6:-0.911903 7:-0.869651 8:-0.863478 
512 1:1 2:0.108108 3:0.0756303 4:-0.752212 5:-0.632371 6:-0.732347 7:-0.677419 8:-0.664175 
512 1:-1 2:-0.162162 3:-0.260504 4:-0.79646 5:-0.811227 6:-0.870208 7:-0.784068 8:-0.833582 
512 1:-1 2:0.027027 3:-0.0420168 4:-0.761062 5:-0.674163 6:-0.776059 7:-0.585253 8:-0.763827 
512 2:0.189189 3:0.12605 4:-0.769912 5:-0.593767 6:-0.735709 7:-0.658986 8:-0.635277 
512 2:0.162162 3:0.12605 4:-0.716814 5:-0.545245 6:-0.66846 7:-0.468071 8:-0.67713 
512 1:-1 2:0.0675676 3:0.0588235 4:-0.681416 5:-0.640163 6:-0.743779 7:-0.662936 8:-0.679123 
512 1:-1 2:-0.0135135 3:-0.0588235 4:-0.80531 5:-0.72233 6:-0.790182 7:-0.748519 8:-0.759841 
512 1:-1 2:-0.0540541 3:-0.0756303 4:-0.769912 5:-0.689393 6:-0.796907 7:-0.755102 8:-0.694071 
512 1:-1 2:-0.108108 3:-0.159664 4:-0.787611 5:-0.77581 6:-0.835239 7:-0.763002 8:-0.813652 
512 1:1 2:-0.0540541 3:-0.092437 4:-0.823009 5:-0.719497 6:-0.841964 7:-0.831468 8:-0.814649 
512 1:-1 2:0.0675676 3:0.0756303 4:-0.787611 5:-0.590225 6:-0.643578 7:-0.755102 8:-0.666168 
512 1:1 2:0.0810811 3:0.0420168 4:-0.778761 5:-0.614308 6:-0.693342 7:-0.689269 8:-0.660189 
512 2:0.0945946 3:0.0420168 4:-0.761062 5:-0.548433 6:-0.605245 7:-0.703752 8:-0.65421 
60.768185556882649 1:1 2:0.108108 3:0.00840336 4:-0.814159 5:-0.648663 6:-0.70881 7:-0.748519 8:-0.699053 
512 1:-1 2:0.121622 3:0.109244 4:-0.778761 5:-0.570037 6:-0.589106 7:-0.748519 8:-0.649228 
512 2:0.135135 3:0.193277 4:-0.778761 5:-0.466265 6:-0.550101 7:-0.661619 8:-0.576482 
512 1:-1 2:0.148649 3:0.159664 4:-0.778761 5:-0.578183 6:-0.638198 7:-0.665569 8:-0.672147 
512 1:-1 2:0.162162 3:0.294118 4:-0.752212 5:-0.415265 6:-0.542031 7:-0.512837 8:-0.526657 
512 1:-1 2:0.216216 3:0.142857 4:-0.769912 5:-0.460599 6:-0.547411 7:-0.62607 8:-0.554559 
512 2:0.283784 3:0.260504 4:-0.778761 5:-0.347618 6:-0.458642 7:-0.540487 8:-0.438964 
512 1:-1 2:0.297297 3:0.277311 4:-0.743363 5:-0.315389 6:-0.330868 7:-0.55892 8:-0.527653 
512 1:-1 2:0.337838 3:0.344538 4:-0.734513 5:-0.327076 6:-0.477471 7:-0.433838 8:-0.455904 
512 2:0.351351 3:0.378151 4:-0.752212 5:-0.322826 6:-0.406859 7:-0.523371 8:-0.463876 
512 1:-1 2:0.391892 3:0.411765 4:-0.707965 5:-0.238534 6:-0.390047 7:-0.358789 8:-0.386148 
512 2:0.405405 3:0.428571 4:-0.716814 5:-0.144679 6:-0.298588 7:-0.221856 8:-0.365222 
512 2:0.405405 3:0.411765 4:-0.716814 5:-0.193554 6:-0.265636 7:-0.393022 8:-0.46288 
512 1:-1 2:0.432432 3:0.344538 4:-0.716814 5:-0.219763 6:-0.435104 7:-0.207373 8:-0.355257 
512 1:-1 2:0.459459 3:0.529412 4:-0.734513 5:-0.0834071 6:-0.268325 7:-0.128374 8:-0.365222 
512 1:-1 2:0.472973 3:0.495798 4:-0.707965 5:-0.0756154 6:-0.146604 7:-0.331139 8:-0.375187 
512 1:-1 2:0.513514 3:0.529412 4:-0.699115 5:-0.0412608 6:-0.168796 7:-0.198157 8:-0.22571 
512 2:0.513514 3:0.445378 4:-0.707965 5:-0.0844696 6:-0.102892 7:-0.315339 8:-0.461883 
512 2:0.527027 3:0.529412 4:-0.707965 5:0.0511776 6:0.0201748 7:-0.127057 8:-0.363229 
512 1:-1 2:0.567568 3:0.563025 4:-0.707965 5:-0.00301045 6:-0.213181 7:-0.235023 8:-0.195815 
512 2:0.621622 3:0.579832 4:-0.725664 5:0.0458651 6:-0.156691 7:-0.104674 8:-0.165919 
512 1:1 2:0.0135135 3:0.0252101 4:-0.769912 5:-0.66283 6:-0.744452 7:-0.666886 8:-0.729945 
512 1:1 2:0.027027 3:0.00840336 4:-0.778761 5:-0.624225 6:-0.698722 7:-0.669519 8:-0.711011 
512 1:-1 2:0.0810811 3:0.0588235 4:-0.778761 5:-0.621038 6:-0.702757 7:-0.681369 8:-0.704036 
512 1:-1 2:0.0945946 3:0.0756303 4:-0.79646 5:-0.522224 6:-0.570276 7:-0.720869 8:-0.664175 
512 1:-1 2:0.0945946 3:0.109244 4:-0.743363 5:-0.548079 6:-0.607935 7:-0.631336 8:-0.689088 
512 2:0.108108 3:0.0588235 4:-0.79646 5:-0.662476 6:-0.73302 7:-0.749835 8:-0.745889 
512 1:-1 2:0.121622 3:0.109244 4:-0.778761 5:-0.541704 6:-0.570948 7:-0.674786 8:-0.665172 
512 1:-1 2:0.135135 3:0.142857 4:-0.761062 5:-0.552683 6:-0.593141 7:-0.660303 8:-0.705032 
512 1:-1 2:0.135135 3:0.159664 4:-0.761062 5:-0.569329 6:-0.635508 7:-0.623436 8:-0.715994 
512 1:-1 2:0.148649 3:0.12605 4:-0.761062 5:-0.534266 6:-0.578346 7:-0.597103 8:-0.691081 
512 1:-1 2:0.148649 3:0.159664 4:-0.778761 5:-0.525058 6:-0.549428 7:-0.685319 8:-0.639263 
512 2:0.162162 3:0.12605 4:-0.769912 5:-0.523995 6:-0.575656 7:-0.63002 8:-0.647235 
512 1:-1 2:0.162162 3:0.193277 4:-0.778761 5:-0.546662 6:-0.612643 7:-0.651086 8:-0.694071 
512 1:1 2:0.162162 3:0.00840336 4:-0.778761 5:-0.575704 6:-0.665098 7:-0.684003 8:-0.63428 
512 1:-1 2:0.175676 3:0.12605 4:-0.761062 5:-0.456703 6:-0.472091 7:-0.61817 8:-0.624315 
512 1:1 2:0.175676 3:0.0756303 4:-0.823009 5:-0.591642 6:-0.681237 7:-0.678736 8:-0.65421 
512 1:1 2:0.175676 3:0.176471 4:-0.761062 5:-0.456703 6:-0.509751 7:-0.583937 8:-0.644245 
512 1:-1 2:0.175676 3:0.176471 4:-0.734513 5:-0.503099 6:-0.534633 7:-0.648453 8:-0.627304 
512 1:-1 2:0.175676 3:0.193277 4:-0.743363 5:-0.437577 6:-0.481506 7:-0.523371 8:-0.613353 
512 2:0.189189 3:0.260504 4:-0.752212 5:-0.410661 6:-0.507734 7:-0.474654 8:-0.544594 
512 2:0.22973 3:0.243697 4:-0.769912 5:-0.46414 6:-0.564223 7:-0.482554 8:-0.59442 
512 2:0.22973 3:0.243697 4:-0.734513 5:-0.399681 6:-0.560188 7:-0.390388 8:-0.600399 
512 1:-1 2:0.22973 3:0.176471 4:-0.778761 5:-0.539933 6:-0.63618 7:-0.57867 8:-0.632287 
512 2:0.243243 3:0.159664 4:-0.761062 5:-0.419515 6:-0.472091 7:-0.485188 8:-0.59442 
512 1:-1 2:0.243243 3:0.260504 4:-0.752212 5:-0.493891 6:-0.61735 7:-0.581303 8:-0.573493 
512 1:-1 2:0.243243 3:0.277311 4:-0.752212 5:-0.382327 6:-0.498991 7:-0.398288 8:-0.565521 
512 2:0.283784 3:0.260504 4:-0.752212 5:-0.427307 6:-0.506389 7:-0.577354 8:-0.454908 
512 2:0.310811 3:0.344538 4:-0.716814 5:-0.316451 6:-0.392737 7:-0.456221 8:-0.456901 
512 2:0.324324 3:0.159664 4:-0.769912 5:-0.507349 6:-0.587761 7:-0.56287 8:-0.644245 
512 2:0.337838 3:0.344538 4:-0.734513 5:-0.217284 6:-0.27505 7:-0.329822 8:-0.464873 
512 1:-1 2:0.337838 3:0.310924 4:-0.752212 5:-0.248096 6:-0.293208 7:-0.423305 8:-0.524664 
512 1:-1 2:0.337838 3:0.361345 4:-0.699115 5:-0.361431 6:-0.453262 7:-0.491771 8:-0.576482 
512 1:-1 2:0.351351 3:0.411765 4:-0.716814 5:-0.212325 6:-0.334902 7:-0.278473 8:-0.425012 
512 2:0.351351 3:0.361345 4:-0.716814 5:-0.220117 6:-0.27774 7:-0.419355 8:-0.506726 
512 2:0.364865 3:0.361345 4:-0.734513 5:-0.211263 6:-0.251513 7:-0.407505 8:-0.425012 
512 2:0.364865 3:0.361345 4:-0.681416 5:-0.256596 6:-0.450572 7:-0.317972 8:-0.452915 
512 2:0.364865 3:0.327731 4:-0.743363 5:-0.196033 6:-0.250168 7:-0.421988 8:-0.425012 
512 1:-1 2:0.364865 3:0.462185 4:-0.769912 5:-0.198512 6:-0.213181 7:-0.325872 8:-0.530643 
512 1:-1 2:0.391892 3:0.394958 4:-0.716814 5:-0.147158 6:-0.357095 7:-0.362739 8:-0.387145 
512 2:0.391892 3:0.344538 4:-0.743363 5:-0.248451 6:-0.308003 7:-0.357472 8:-0.504733 
512 1:-1 2:0.405405 3:0.411765 4:-0.707965 5:-0.142199 6:-0.166106 7:-0.360105 8:-0.456901 
512 2:0.405405 3:0.361345 4:-0.752212 5:-0.289888 6:-0.375252 7:-0.449638 8:-0.501744 
512 1:-1 2:0.405405 3:0.344538 4:-0.734513 5:-0.261909 6:-0.30464 7:-0.420671 8:-0.464873 
512 2:0.432432 3:0.462185 4:-0.734513 5:-0.197804 6:-0.293208 7:-0.304806 8:-0.415047 
512 1:-1 2:0.432432 3:0.411765 4:-0.725664 5:-0.179033 6:-0.232011 7:-0.354839 8:-0.454908 
512 2:0.459459 3:0.428571 4:-0.716814 5:-0.11422 6:-0.214526 7:-0.317972 8:-0.345291 
512 2:0.486486 3:0.495798 4:-0.707965 5:-0.0890738 6:-0.230666 7:-0.202107 8:-0.375187 
512 2:0.486486 3:0.445378 4:-0.646018 5:-0.0239065 6:-0.215198 7:-0.206057 8:-0.203787 
512 1:-1 2:0.5 3:0.445378 4:-0.725664 5:-0.0961573 6:-0.144586 7:-0.277156 8:-0.385152 
512 1:-1 2:0.5 3:0.428571 4:-0.734513 5:-0.166637 6:-0.303968 7:-0.348255 8:-0.358246 
512 1:-1 2:0.540541 3:0.563025 4:-0.690265 5:0.104303 6:-0.0477471 7:-0.0651745 8:-0.20578 
512 2:0.540541 3:0.512605 4:-0.707965 5:0.0132814 6:-0.0813719 7:-0.190257 8:-0.333333 
512 1:-1 2:0.554054 3:0.478992 4:-0.716814 5:-0.0777404 6:-0.234701 7:-0.179724 8:-0.260588 
512 2:0.567568 3:0.361345 4:-0.716814 5:0.0568443 6:-0.0739744 7:-0.129691 8:-0.639263 
512 1:-1 2:0.581081 3:0.613445 4:-0.663717 5:0.125199 6:-0.137189 7:-0.219223 8:0.0284006 
512 2:0.581081 3:0.411765 4:-0.681416 5:-0.0313441 6:-0.139206 7:-0.227123 8:-0.335326 
512 1:-1 2:0.662162 3:0.579832 4:-0.690265 5:0.203117 6:0.108944 7:-0.0480579 8:-0.195815 
512 1:-1 2:0.121622 3:0.378151 4:-0.778761 5:-0.631309 6:-0.685272 7:-0.658986 8:-0.721973 
512 1:1 2:0.148649 3:0.0756303 4:-0.787611 5:-0.617496 6:-0.712172 7:-0.695853 8:-0.664175 
512 1:1 2:0.175676 3:0.092437 4:-0.79646 5:-0.636267 6:-0.712172 7:-0.702436 8:-0.672147 
512 1:-1 2:0.202703 3:0.159664 4:-0.743363 5:-0.45139 6:-0.527236 7:-0.515471 8:-0.63428 
512 2:0.202703 3:0.361345 4:-0.734513 5:-0.279617 6:-0.297915 7:-0.478604 8:-0.496761 
512 1:1 2:0.216216 3:0.159664 4:-0.752212 5:-0.575704 6:-0.648285 7:-0.662936 8:-0.63727 
512 1:-1 2:0.216216 3:0.176471 4:-0.787611 5:-0.466265 6:-0.496301 7:-0.591837 8:-0.602392 
512 1:1 2:0.22973 3:0.159664 4:-0.778761 5:-0.56437 6:-0.626093 7:-0.666886 8:-0.624315 
512 2:0.283784 3:0.260504 4:-0.734513 5:-0.40641 6:-0.470074 7:-0.487821 8:-0.558545 
512 1:-1 2:0.310811 3:0.260504 4:-0.743363 5:-0.364264 6:-0.37727 7:-0.533904 8:-0.536622 
512 1:-1 2:0.310811 3:0.310924 4:-0.716814 5:-0.366389 6:-0.436449 7:-0.428571 8:-0.561535 
354.35812946712076 2:0.310811 3:0.294118 4:-0.725664 5:-0.547724 6:-0.549428 7:-0.536537 8:-0.514699 
512 1:-1 2:0.310811 3:0.210084 4:-0.743363 5:-0.39791 6:-0.422999 7:-0.504937 8:-0.59442 
512 1:-1 2:0.324324 3:0.344538 4:-0.734513 5:-0.321764 6:-0.387357 7:-0.370639 8:-0.544594 
512 2:0.324324 3:0.327731 4:-0.690265 5:-0.286347 6:-0.400134 7:-0.375905 8:-0.475835 
512 1:-1 2:0.337838 3:0.361345 4:-0.734513 5:-0.266513 6:-0.273033 7:-0.465438 8:-0.504733 
512 2:0.337838 3:0.310924 4:-0.743363 5:-0.379848 6:-0.447209 7:-0.429888 8:-0.564524 
512 1:1 2:0.337838 3:0.294118 4:-0.734513 5:-0.466619 6:-0.540686 7:-0.579987 8:-0.556552 
512 2:0.351351 3:0.361345 4:-0.743363 5:-0.296972 6:-0.37458 7:-0.398288 8:-0.474838 
512 1:-1 2:0.351351 3:0.277311 4:-0.752212 5:-0.402515 6:-0.462004 7:-0.498354 8:-0.560538 
512 2:0.351351 3:0.394958 4:-0.707965 5:-0.385869 6:-0.416274 7:-0.482554 8:-0.52865 
512 1:-1 2:0.351351 3:0.344538 4:-0.761062 5:-0.358952 6:-0.430397 7:-0.482554 8:-0.484803 
512 1:-1 2:0.351351 3:0.310924 4:-0.743363 5:-0.401452 6:-0.443174 7:-0.489138 8:-0.564524 
512 1:-1 2:0.364865 3:0.344538 4:-0.734513 5:-0.212325 6:-0.360457 7:-0.433838 8:-0.474838 
512 1:-1 2:0.364865 3:0.344538 4:-0.654867 5:0.315389 6:0.26967 7:0.120474 8:-0.124066 
512 1:-1 2:0.364865 3:0.310924 4:-0.761062 5:-0.424827 6:-0.493611 7:-0.497038 8:-0.564524 
512 1:-1 2:0.364865 3:0.327731 4:-0.752212 5:-0.320347 6:-0.34768 7:-0.523371 8:-0.498754 
512 2:0.364865 3:0.327731 4:-0.725664 5:-0.34266 6:-0.483524 7:-0.353522 8:-0.474838 
512 1:-1 2:0.378378 3:0.361345 4:-0.743363 5:-0.340181 6:-0.35844 7:-0.520737 8:-0.534629 
512 1:-1 2:0.378378 3:0.378151 4:-0.716814 5:-0.324597 6:-0.383322 7:-0.379855 8:-0.474838 
512 1:-1 2:0.391892 3:0.394958 4:-0.734513 5:-0.296264 6:-0.354405 7:-0.390388 8:-0.524664 
512 2:0.418919 3:0.411765 4:-0.716814 5:-0.274305 6:-0.349025 7:-0.344305 8:-0.491779 
512 2:0.418919 3:0.378151 4:-0.734513 5:-0.220471 6:-0.267653 7:-0.311389 8:-0.504733 
512 2:0.432432 3:0.394958 4:-0.707965 5:-0.167345 6:-0.179556 7:-0.402238 8:-0.421026 
512 1:-1 2:0.432432 3:0.411765 4:-0.752212 5:-0.209846 6:-0.254876 7:-0.324556 8:-0.456901 
512 2:0.432432 3:0.411765 4:-0.707965 5:-0.253409 6:-0.418964 7:-0.423305 8:-0.29148 
512 1:-1 2:0.445946 3:0.445378 4:-0.716814 5:-0.282805 6:-0.286483 7:-0.443055 8:-0.521674 
512 1:-1 2:0.445946 3:0.394958 4:-0.707965 5:-0.256242 6:-0.33154 7:-0.364055 8:-0.470852 
512 2:0.459459 3:0.378151 4:-0.734513 5:-0.347618 6:-0.380632 7:-0.520737 8:-0.521674 
512 2:0.459459 3:0.411765 4:-0.725664 5:-0.273951 6:-0.400134 7:-0.342989 8:-0.434978 
512 1:-1 2:0.472973 3:0.394958 4:-0.761062 5:-0.279263 6:-0.286483 7:-0.473338 8:-0.509716 
512 1:-1 2:0.472973 3:0.327731 4:-0.646018 5:-0.39366 6:-0.425017 7:-0.599737 8:-0.523667 
512 2:0.472973 3:0.428571 4:-0.716814 5:-0.213388 6:-0.243443 7:-0.357472 8:-0.44295 
512 2:0.486486 3:0.445378 4:-0.690265 5:-0.0278024 6:-0.0147949 7:-0.286373 8:-0.341305 
512 1:-1 2:0.486486 3:0.428571 4:-0.672566 5:-0.146804 6:-0.211836 7:-0.237656 8:-0.432985 
512 1:-1 2:0.5 3:0.394958 4:-0.725664 5:-0.199221 6:-0.209146 7:-0.445688 8:-0.430992 
512 2:0.513514 3:0.478992 4:-0.973451 5:-0.182221 6:-0.313383 7:-0.190257 8:-0.428002 
512 2:0.554054 3:0.495798 4:-0.663717 5:0.0355941 6:-0.138534 7:-0.108624 8:-0.156951 
512 1:-1 2:0.594595 3:0.579832 4:-0.716814 5:-0.0359483 6:-0.155346 7:-0.266623 8:-0.325361 
512 1:1 2:0.594595 3:0.495798 4:-0.699115 5:-0.0823446 6:-0.189644 7:-0.235023 8:-0.286497 
512 2:0.608108 3:0.512605 4:-0.637168 5:-0.0348858 6:-0.184264 7:-0.20474 8:-0.299452 
512 2:0.662162 3:0.630252 4:-0.725664 5:0.0285107 6:-0.162071 7:-0.183673 8:-0.22571 
512 2:0.662162 3:0.596639 4:-0.699115 5:0.0989906 6:0.0672495 7:-0.0836076 8:-0.266567 
512 1:-1 2:0.689189 3:0.714286 4:-0.681416 5:0.238888 6:0.202421 7:-0.117841 8:-0.114101 
512 2:0.689189 3:0.579832 4:-0.663717 5:0.164866 6:0.147949 7:-0.19289 8:-0.206776 
512 1:1 2:-0.702703 3:0.0756303 4:-0.787611 5:-0.672392 6:-0.737727 7:-0.726136 8:-0.704036 
512 1:1 2:-0.0945946 3:-0.0588235 4:-0.80531 5:-0.767664 6:-0.790182 7:-0.815668 8:-0.664175 
512 2:0.0405405 3:0.0420168 4:-0.778761 5:-0.662476 6:-0.724277 7:-0.726136 8:-0.721973 
512 1:1 2:0.0675676 3:0.00840336 4:-0.681416 5:-0.661413 6:-0.72495 7:-0.724819 8:-0.703039 
512 1:1 2:0.0810811 3:0.092437 4:-0.787611 5:-0.689038 6:-0.761264 7:-0.768269 8:-0.703039 
512 1:1 2:0.0810811 3:0.0252101 4:-0.80531 5:-0.652913 6:-0.717552 7:-0.711652 8:-0.704036 
512 1:1 2:0.0945946 3:0.0588235 4:-0.778761 5:-0.616434 6:-0.673167 7:-0.735352 8:-0.674141 
512 1:1 2:0.135135 3:0.092437 4:-0.769912 5:-0.638392 6:-0.707465 7:-0.695853 8:-0.684106 
512 1:-1 2:0.135135 3:0.142857 4:-0.787611 5:-0.609704 6:-0.700067 7:-0.639236 8:-0.670154 
512 1:-1 2:0.148649 3:0.226891 4:-0.761062 5:-0.522224 6:-0.595158 7:-0.628703 8:-0.59143 
512 1:1 2:0.148649 3:0.0756303 4:-0.743363 5:-0.590933 6:-0.679892 7:-0.639236 8:-0.63428 
512 1:1 2:0.148649 3:0.193277 4:-0.752212 5:-0.532849 6:-0.653665 7:-0.573404 8:-0.612357 
512 1:1 2:0.148649 3:0.142857 4:-0.752212 5:-0.561183 6:-0.607935 7:-0.684003 8:-0.61435 
512 1:1 2:0.162162 3:0.092437 4:-0.787611 5:-0.580662 6:-0.65232 7:-0.623436 8:-0.644245 
512 1:1 2:0.162162 3:0.142857 4:-0.814159 5:-0.611121 6:-0.667787 7:-0.730086 8:-0.662182 
512 1:1 2:0.189189 3:0.159664 4:-0.761062 5:-0.508057 6:-0.570948 7:-0.670836 8:-0.65421 
512 1:1 2:0.202703 3:0.142857 4:-0.778761 5:-0.531787 6:-0.597176 7:-0.656353 8:-0.623318 
512 1:-1 2:0.216216 3:0.226891 4:-0.725664 5:-0.404994 6:-0.425689 7:-0.628703 8:-0.595416 
512 1:1 2:0.22973 3:0.210084 4:-0.80531 5:-0.594475 6:-0.661735 7:-0.676103 8:-0.626308 
512 2:0.243243 3:0.193277 4:-0.769912 5:-0.495307 6:-0.550773 7:-0.62212 8:-0.589437 
512 1:-1 2:0.243243 3:0.277311 4:-0.734513 5:-0.493536 6:-0.533961 7:-0.620803 8:-0.616343 
512 1:1 2:0.256757 3:0.226891 4:-0.752212 5:-0.486807 6:-0.570276 7:-0.620803 8:-0.546587 
512 1:1 2:0.27027 3:0.277311 4:-0.761062 5:-0.454932 6:-0.501009 7:-0.611587 8:-0.550573 
512 2:0.27027 3:0.310924 4:-0.734513 5:-0.434744 6:-0.525891 7:-0.572087 8:-0.590433 
512 2:0.283784 3:0.176471 4:-0.778761 5:-0.540287 6:-0.602555 7:-0.640553 8:-0.604385 
512 1:-1 2:0.283784 3:0.260504 4:-0.734513 5:-0.381973 6:-0.445864 7:-0.499671 8:-0.508719 
512 1:1 2:0.283784 3:0.243697 4:-0.761062 5:-0.483974 6:-0.554136 7:-0.59447 8:-0.574489 
512 1:-1 2:0.297297 3:0.294118 4:-0.752212 5:-0.384806 6:-0.453934 7:-0.59052 8:-0.494768 
512 1:1 2:0.297297 3:0.260504 4:-0.752212 5:-0.458474 6:-0.542703 7:-0.56682 8:-0.544594 
512 1:1 2:0.297297 3:0.243697 4:-0.743363 5:-0.441473 6:-0.532616 7:-0.536537 8:-0.554559 
512 1:1 2:0.310811 3:0.243697 4:-0.761062 5:-0.420223 6:-0.501681 7:-0.514154 8:-0.532636 
512 1:1 2:0.310811 3:0.243697 4:-0.743363 5:-0.514078 6:-0.585071 7:-0.65767 8:-0.5715 
512 2:0.324324 3:0.327731 4:-0.743363 5:-0.399681 6:-0.434432 7:-0.557604 8:-0.554559 
512 1:-1 2:0.324324 3:0.310924 4:-0.734513 5:-0.437577 6:-0.512441 7:-0.516787 8:-0.566517 
512 1:1 2:0.337838 3:0.327731 4:-0.761062 5:-0.438994 6:-0.488231 7:-0.628703 8:-0.514699 
512 2:0.337838 3:0.361345 4:-0.761062 5:-0.307597 6:-0.467384 7:-0.336406 8:-0.473842 
512 1:-1 2:0.337838 3:0.277311 4:-0.778761 5:-0.366389 6:-0.486214 7:-0.518104 8:-0.454908 
512 2:0.351351 3:0.428571 4:-0.707965 5:-0.237825 6:-0.314055 7:-0.449638 8:-0.393124 
512 2:0.364865 3:0.310924 4:-0.734513 5:-0.39366 6:-0.463349 7:-0.59052 8:-0.498754 
512 1:-1 2:0.378378 3:0.378151 4:-0.725664 5:-0.353639 6:-0.388702 7:-0.483871 8:-0.534629 
512 1:-1 2:0.378378 3:0.327731 4:-0.681416 5:-0.435098 6:-0.549428 7:-0.512837 8:-0.530643 
512 1:1 2:0.391892 3:0.310924 4:-0.761062 5:-0.454932 6:-0.560188 7:-0.541804 8:-0.544594 
512 1:-1 2:0.391892 3:0.394958 4:-0.681416 5:-0.160616 6:-0.196369 7:-0.403555 8:-0.385152 
512 2:0.432432 3:0.411765 4:-0.690265 5:-0.239242 6:-0.378615 7:-0.423305 8:-0.335326 
512 1:1 2:0.445946 3:0.378151 4:-0.734513 5:-0.321055 6:-0.396772 7:-0.54707 8:-0.432985 
512 1:-1 2:0.459459 3:0.428571 4:-0.690265 5:-0.209492 6:-0.401479 7:-0.159974 8:-0.405082 
512 1:-1 2:0.486486 3:0.344538 4:-0.699115 5:-0.234992 6:-0.334902 7:-0.383805 8:-0.375187 
512 2:0.486486 3:0.546218 4:-0.716814 5:-0.106074 6:-0.232683 7:-0.142857 8:-0.363229 
512 2:0.5 3:0.445378 4:-0.699115 5:-0.0660528 6:-0.201748 7:-0.0928242 8:-0.315396 
512 2:0.513514 3:0.495798 4:-0.707965 5:0.0324066 6:-0.0531271 7:-0.304806 8:-0.22571 
512 1:-1 2:0.554054 3:0.529412 4:-0.663717 5:0.0908447 6:-0.0390047 7:-0.0177749 8:-0.255605 
512 1:-1 2:0.648649 3:0.647059 4:-0.637168 5:0.268284 6:0.0941493 7:0.0941409 8:-0.0842053 
512 2:0.810811 3:0.731092 4:-0.619469 5:0.59235 6:0.554136 7:0.17314 8:0.109118 
512 1:1 2:0.0675676 3:0.00840336 4:-0.787611 5:-0.740393 6:-0.831876 7:-0.781435 8:-0.730942 
512 1:-1 2:0.108108 3:0.12605 4:-0.849558 5:-0.545599 6:-0.605245 7:-0.730086 8:-0.608371 
512 1:-1 2:0.108108 3:0.0588235 4:-0.769912 5:-0.628829 6:-0.667115 7:-0.724819 8:-0.693074 
512 1:-1 2:0.162162 3:0.109244 4:-0.814159 5:-0.610058 6:-0.679892 7:-0.673469 8:-0.693074 
512 1:-1 2:0.189189 3:0.243697 4:-0.743363 5:-0.338056 6:-0.332885 7:-0.524687 8:-0.567514 
512 1:1 2:0.189189 3:0.159664 4:-0.778761 5:-0.602975 6:-0.665098 7:-0.673469 8:-0.664175 
512 2:0.27027 3:0.193277 4:-0.752212 5:-0.47689 6:-0.521856 7:-0.533904 8:-0.598406 
512 2:0.283784 3:0.260504 4:-0.752212 5:-0.40641 6:-0.496974 7:-0.427255 8:-0.615346 
512 1:-1 2:0.283784 3:0.243697 4:-0.716814 5:-0.439702 6:-0.540013 7:-0.465438 8:-0.574489 
512 1:-1 2:0.337838 3:0.310924 4:-0.734513 5:-0.30193 6:-0.32347 7:-0.456221 8:-0.506726 
512 1:-1 2:0.351351 3:0.361345 4:-0.707965 5:-0.352931 6:-0.462677 7:-0.352205 8:-0.527653 
512 2:0.364865 3:0.361345 4:-0.690265 5:-0.1762 6:-0.127102 7:-0.420671 8:-0.394121 
512 1:-1 2:0.378378 3:0.344538 4:-0.734513 5:-0.35966 6:-0.450572 7:-0.395655 8:-0.537618 
512 1:-1 2:0.391892 3:0.294118 4:-0.734513 5:-0.383389 6:-0.480834 7:-0.435155 8:-0.514699 
512 2:0.391892 3:0.361345 4:-0.743363 5:-0.299805 6:-0.392065 7:-0.420671 8:-0.454908 
512 2:0.405405 3:0.344538 4:-0.716814 5:-0.264742 6:-0.39341 7:-0.302172 8:-0.428999 
512 1:-1 2:0.418919 3:0.344538 4:-0.725664 5:-0.332035 6:-0.414257 7:-0.452271 8:-0.504733 
512 1:-1 2:0.418919 3:0.378151 4:-0.646018 5:-0.109616 6:-0.139879 7:-0.478604 8:-0.29148 
512 2:0.432432 3:0.445378 4:-0.716814 5:-0.150699 6:-0.440484 7:-0.24424 8:-0.24564 
512 2:0.432432 3:0.546218 4:-0.699115 5:-0.0883655 6:-0.194351 7:-0.225806 8:-0.342302 
512 1:1 2:0.459459 3:0.411765 4:-0.769912 5:-0.40464 6:-0.526564 7:-0.497038 8:-0.50274 
512 2:0.472973 3:0.277311 4:-0.725664 5:-0.284576 6:-0.359785 7:-0.379855 8:-0.454908 
512 1:-1 2:0.472973 3:0.428571 4:-0.707965 5:-0.241721 6:-0.353732 7:-0.382488 8:-0.381166 
512 1:-1 2:0.5 3:0.394958 4:-0.743363 5:-0.221888 6:-0.30195 7:-0.316656 8:-0.452915 
512 1:-1 2:0.5 3:0.344538 4:-0.734513 5:-0.199929 6:-0.354405 7:-0.278473 8:-0.395117 
512 1:-1 2:0.513514 3:0.529412 4:-0.672566 5:-0.074907 6:-0.26967 7:-0.163924 8:-0.251619 
512 2:0.527027 3:0.546218 4:-0.637168 5:0.0848238 6:-0.108944 7:-0.120474 8:-0.200797 
512 2:0.554054 3:0.495798 4:-0.716814 5:-0.0221356 6:-0.0571621 7:-0.20079 8:-0.366218 
512 1:-1 2:0.554054 3:0.445378 4:-0.752212 5:-0.169116 6:-0.362475 7:-0.360105 8:-0.574489 
512 1:1 2:0.0540541 3:0.0588235 4:-0.787611 5:-0.692226 6:-0.748487 7:-0.786702 8:-0.710015 
512 1:1 2:0.0675676 3:0.00840336 4:-0.778761 5:-0.647955 6:-0.718897 7:-0.741935 8:-0.694071 
512 1:1 2:0.0810811 3:0.0252101 4:-0.743363 5:-0.553391 6:-0.621385 7:-0.640553 8:-0.624315 
512 1:1 2:0.0945946 3:0.0588235 4:-0.778761 5:-0.665663 6:-0.760592 7:-0.728769 8:-0.65421 
512 1:-1 2:0.0945946 3:0.00840336 4:-0.716814 5:-0.672747 6:-0.704102 7:-0.722186 8:-0.526657 
512 1:1 2:0.135135 3:0.159664 4:-0.814159 5:-0.574996 6:-0.664425 7:-0.668203 8:-0.624315 
512 1:1 2:0.148649 3:0.159664 4:-0.787611 5:-0.565079 6:-0.650303 7:-0.624753 8:-0.617339 
512 1:1 2:0.148649 3:0.12605 4:-0.787611 5:-0.5796 6:-0.67115 7:-0.61422 8:-0.658196 
512 1:1 2:0.148649 3:0.0756303 4:-0.752212 5:-0.605454 6:-0.68191 7:-0.64582 8:-0.666168 
512 1:1 2:0.189189 3:0.12605 4:-0.778761 5:-0.597308 6:-0.681237 7:-0.668203 8:-0.63428 
512 1:1 2:0.202703 3:0.12605 4:-0.769912 5:-0.608642 6:-0.6846 7:-0.712969 8:-0.625311 
512 1:-1 2:0.216216 3:0.210084 4:-0.743363 5:-0.402869 6:-0.527236 7:-0.57077 8:-0.429995 
512 1:1 2:0.216216 3:0.092437 4:-0.761062 5:-0.565787 6:-0.650303 7:-0.58262 8:-0.65421 
512 1:-1 2:0.216216 3:0.159664 4:-0.725664 5:-0.50062 6:-0.622058 7:-0.57867 8:-0.554559 
512 1:1 2:0.22973 3:0.226891 4:-0.787611 5:-0.578891 6:-0.6577 7:-0.63002 8:-0.650224 
512 1:1 2:0.22973 3:0.159664 4:-0.743363 5:-0.608288 6:-0.741089 7:-0.65767 8:-0.61435 
512 1:1 2:0.243243 3:0.159664 4:-0.769912 5:-0.536037 6:-0.62004 7:-0.57472 8:-0.65421 
512 1:1 2:0.256757 3:0.260504 4:-0.699115 5:-0.409244 6:-0.500336 7:-0.523371 8:-0.524664 
512 1:1 2:0.256757 3:0.243697 4:-0.752212 5:-0.475828 6:-0.570948 7:-0.63397 8:-0.504733 
512 1:1 2:0.256757 3:0.260504 4:-0.752212 5:-0.420931 6:-0.472091 7:-0.54707 8:-0.54559 
512 1:1 2:0.256757 3:0.226891 4:-0.752212 5:-0.556933 6:-0.664425 7:-0.691903 8:-0.534629 
512 1:1 2:0.27027 3:0.226891 4:-0.778761 5:-0.493536 6:-0.519839 7:-0.706386 8:-0.564524 
512 1:1 2:0.283784 3:0.243697 4:-0.734513 5:-0.548787 6:-0.639543 7:-0.647136 8:-0.570503 
512 1:1 2:0.283784 3:0.210084 4:-0.743363 5:-0.447848 6:-0.499664 7:-0.579987 8:-0.561535 
512 1:1 2:0.283784 3:0.243697 4:-0.734513 5:-0.458474 6:-0.545393 7:-0.537854 8:-0.584454 
512 1:1 2:0.297297 3:0.142857 4:-0.769912 5:-0.605808 6:-0.702757 7:-0.673469 8:-0.664175 
512 1:1 2:0.324324 3:0.226891 4:-0.725664 5:-0.47512 6:-0.584398 7:-0.511521 8:-0.542601 
512 2:0.324324 3:0.294118 4:-0.734513 5:-0.390119 6:-0.416274 7:-0.608953 8:-0.464873 
512 1:-1 2:0.324324 3:0.294118 4:-0.778761 5:-0.433327 6:-0.517821 7:-0.520737 8:-0.574489 
512 2:0.337838 3:0.327731 4:-0.761062 5:-0.448557 6:-0.551446 7:-0.514154 8:-0.584454 
512 1:-1 2:0.337838 3:0.327731 4:-0.752212 5:-0.438286 6:-0.546066 7:-0.611587 8:-0.514699 
512 1:1 2:0.337838 3:0.277311 4:-0.699115 5:-0.400744 6:-0.463349 7:-0.564187 8:-0.504733 
512 1:1 2:0.337838 3:0.310924 4:-0.725664 5:-0.387285 6:-0.503026 7:-0.552337 8:-0.444943 
512 1:-1 2:0.351351 3:0.344538 4:-0.707965 5:-0.387285 6:-0.494956 7:-0.526004 8:-0.468859 
512 1:1 2:0.351351 3:0.327731 4:-0.778761 5:-0.448911 6:-0.560861 7:-0.506254 8:-0.534629 
512 2:0.351351 3:0.378151 4:-0.654867 5:-0.295555 6:-0.440484 7:-0.350889 8:-0.0662681 
512 1:1 2:0.351351 3:0.310924 4:-0.699115 5:-0.433682 6:-0.533961 7:-0.615537 8:-0.504733 
512 2:0.351351 3:0.277311 4:-0.734513 5:-0.271472 6:-0.381977 7:-0.427255 8:-0.285501 
512 1:-1 2:0.351351 3:0.310924 4:-0.716814 5:-0.407119 6:-0.462677 7:-0.479921 8:-0.526657 
512 2:0.364865 3:0.277311 4:-0.734513 5:-0.410661 6:-0.425689 7:-0.60237 8:-0.544594 
512 1:1 2:0.364865 3:0.310924 4:-0.778761 5:-0.498849 6:-0.593813 7:-0.631336 8:-0.534629 
512 2:0.405405 3:0.277311 4:-0.734513 5:-0.36391 6:-0.439812 7:-0.553654 8:-0.474838 
512 1:1 2:0.405405 3:0.361345 4:-0.734513 5:-0.411015 6:-0.494284 7:-0.494404 8:-0.534629 
512 2:0.418919 3:0.361345 4:-0.725664 5:-0.311847 6:-0.427034 7:-0.462804 8:-0.405082 
512 2:0.418919 3:0.411765 4:-0.734513 5:-0.200992 6:-0.227976 7:-0.485188 8:-0.395117 
512 1:-1 2:0.418919 3:0.428571 4:-0.707965 5:-0.352222 6:-0.445192 7:-0.483871 8:-0.45989 
512 1:1 2:0.418919 3:0.428571 4:-0.699115 5:-0.351514 6:-0.490249 7:-0.415405 8:-0.425012 
512 1:-1 2:0.418919 3:0.394958 4:-0.707965 5:-0.251284 6:-0.32347 7:-0.366689 8:-0.454908 
512 2:0.432432 3:0.344538 4:-0.743363 5:-0.309014 6:-0.37189 7:-0.533904 8:-0.454908 
512 1:-1 2:0.432432 3:0.411765 4:-0.743363 5:-0.375243 6:-0.485541 7:-0.499671 8:-0.464873 
512 2:0.432432 3:0.428571 4:-0.752212 5:-0.299451 6:-0.364492 7:-0.383805 8:-0.524664 
512 2:0.432432 3:0.394958 4:-0.725664 5:-0.311493 6:-0.472764 7:-0.411455 8:-0.336323 
512 1:-1 2:0.445946 3:0.394958 4:-0.716814 5:-0.277492 6:-0.397445 7:-0.383805 8:-0.416044 
512 1:1 2:0.445946 3:0.378151 4:-0.778761 5:-0.347972 6:-0.414929 7:-0.500987 8:-0.484803 
512 1:-1 2:0.445946 3:0.394958 4:-0.699115 5:-0.209138 6:-0.298588 7:-0.368005 8:-0.385152 
512 2:0.445946 3:0.445378 4:-0.681416 5:-0.0950947 6:-0.229993 7:-0.249506 8:-0.295466 
512 1:-1 2:0.459459 3:0.411765 4:-0.690265 5:-0.134408 6:-0.189644 7:-0.314022 8:-0.383159 
512 1:1 2:0.472973 3:0.394958 4:-0.752212 5:-0.394723 6:-0.517821 7:-0.579987 8:-0.415047 
512 2:0.472973 3:0.428571 4:-0.690265 5:-0.264388 6:-0.37727 7:-0.415405 8:-0.405082 
512 1:-1 2:0.486486 3:0.495798 4:-0.699115 5:-0.223304 6:-0.376597 7:-0.421988 8:-0.297459 
512 1:1 2:0.486486 3:0.445378 4:-0.734513 5:-0.261909 6:-0.412239 7:-0.246873 8:-0.448929 
512 1:-1 2:0.5 3:0.512605 4:-0.699115 5:-0.228263 6:-0.380632 7:-0.300856 8:-0.405082 
512 2:0.5 3:0.495798 4:-0.681416 5:-0.153887 6:-0.31002 7:-0.389072 8:-0.206776 
512 2:0.513514 3:0.462185 4:-0.699115 5:-0.107845 6:-0.277068 7:-0.299539 8:-0.24564 
512 1:-1 2:0.540541 3:0.529412 4:-0.663717 5:0.0430317 6:-0.187626 7:-0.0928242 8:-0.0463378 
512 1:-1 2:0.540541 3:0.529412 4:-0.716814 5:-0.0593235 6:-0.104909 7:-0.187623 8:-0.371201 
512 2:0.540541 3:0.529412 4:-0.716814 5:-0.122012 6:-0.219233 7:-0.274523 8:-0.375187 
512 1:-1 2:0.540541 3:0.445378 4:-0.734513 5:-0.136179 6:-0.235373 7:-0.281106 8:-0.345291 
512 2:0.554054 3:0.478992 4:-0.725664 5:-0.0543651 6:-0.174176 7:-0.159974 8:-0.335326 
512 1:-1 2:0.554054 3:0.529412 4:-0.716814 5:-0.0214273 6:-0.142569 7:-0.23634 8:-0.272546 
512 2:0.567568 3:0.529412 4:-0.734513 5:-0.262617 6:-0.356422 7:-0.414088 8:-0.395117 
512 1:-1 2:0.581081 3:0.495798 4:-0.707965 5:-0.0667611 6:-0.104237 7:-0.292956 8:-0.323368 
512 1:-1 2:0.594595 3:0.495798 4:-0.690265 5:-0.0823446 6:-0.184264 7:-0.174457 8:-0.375187 
512 2:0.743243 3:0.579832 4:-0.681416 5:0.0221356 6:-0.152656 7:-0.154707 8:-0.136024 
512 1:1 2:-0.189189 3:-0.361345 4:-0.823009 5:-0.72233 6:-0.778077 7:-0.761685 8:-0.778774 
512 2:-0.189189 3:-0.277311 4:-0.761062 5:-0.578537 6:-0.635508 7:-0.656353 8:-0.669158 
512 1:-1 2:-0.148649 3:-0.243697 4:-0.778761 5:-0.601913 6:-0.593141 7:-0.749835 8:-0.717987 
512 1:1 2:-0.027027 3:-0.176471 4:-0.787611 5:-0.578891 6:-0.652993 7:-0.635286 8:-0.675137 
512 1:1 2:0.027027 3:-0.092437 4:-0.761062 5:-0.420577 6:-0.462677 7:-0.549704 8:-0.582461 
512 1:1 2:0.108108 3:0.0420168 4:-0.814159 5:-0.632725 6:-0.739072 7:-0.677419 8:-0.640259 
512 1:-1 2:0.108108 3:0.0588235 4:-0.725664 5:-0.315743 6:-0.437794 7:-0.354839 8:-0.531639 
512 1:1 2:0.108108 3:-0.0252101 4:-0.716814 5:-0.385869 6:-0.586416 7:-0.514154 8:-0.367215 
512 2:0.121622 3:0.00840336 4:-0.716814 5:-0.378431 6:-0.532616 7:-0.435155 8:-0.43996 
512 1:-1 2:0.148649 3:0.0588235 4:-0.734513 5:-0.249513 6:-0.33692 7:-0.414088 8:-0.413054 
512 1:-1 2:0.189189 3:-0.00840336 4:-0.725664 5:-0.347972 6:-0.438467 7:-0.479921 8:-0.458894 
512 1:-1 2:0.189189 3:0.142857 4:-0.761062 5:-0.288118 6:-0.36651 7:-0.344305 8:-0.500747 
512 1:-1 2:0.216216 3:0.092437 4:-0.778761 5:-0.540995 6:-0.593813 7:-0.593153 8:-0.686099 
512 1:-1 2:0.22973 3:0.193277 4:-0.752212 5:-0.466974 6:-0.531271 7:-0.549704 8:-0.583458 
512 1:1 2:0.243243 3:0.109244 4:-0.681416 5:-0.23393 6:-0.334902 7:-0.396972 8:-0.39711 
512 1:1 2:0.27027 3:0.226891 4:-0.707965 5:-0.368514 6:-0.431742 7:-0.423305 8:-0.54858 
512 2:0.27027 3:0.109244 4:-0.734513 5:-0.209138 6:-0.271688 7:-0.357472 8:-0.435974 
512 1:-1 2:0.337838 3:0.344538 4:-0.690265 5:-0.278909 6:-0.355077 7:-0.436471 8:-0.425012 
512 1:1 2:0.378378 3:0.327731 4:-0.734513 5:-0.369931 6:-0.466711 7:-0.465438 8:-0.498754 
512 1:-1 2:0.418919 3:0.378151 4:-0.707965 5:-0.266159 6:-0.332213 7:-0.420671 8:-0.50274 
512 1:-1 2:0.432432 3:0.411765 4:-0.690265 5:-0.11422 6:-0.251513 7:-0.19684 8:-0.319382 
512 1:-1 2:0.486486 3:0.478992 4:-0.690265 5:-0.113157 6:-0.219233 7:-0.24819 8:-0.368211 
512 2:0.527027 3:0.411765 4:-0.752212 5:-0.241721 6:-0.342972 7:-0.396972 8:-0.385152 
512 1:-1 2:0.540541 3:0.495798 4:-0.716814 5:-0.022844 6:-0.0975118 7:-0.142857 8:-0.375187 
512 2:0.567568 3:0.563025 4:-0.646018 5:0.0947406 6:-0.0423672 7:-0.174457 8:-0.0742402 
512 2:0.648649 3:0.613445 4:-0.690265 5:0.120949 6:-0.0363147 7:-0.00724161 8:-0.16293 
512 2:0.743243 3:0.663866 4:-0.654867 5:0.466974 6:0.439812 7:0.121791 8:-0.00348779 
512 1:1 2:-0.0810811 3:-0.142857 4:-0.831858 5:-0.781123 6:-0.850034 7:-0.836735 8:-0.773792 
512 1:1 2:0.0540541 3:0.0588235 4:-0.80531 5:-0.686205 6:-0.781439 7:-0.748519 8:-0.672147 
512 1:1 2:0.0675676 3:0.0756303 4:-0.787611 5:-0.656455 6:-0.737727 7:-0.740619 8:-0.733931 
512 1:1 2:0.108108 3:0.0588235 4:-0.79646 5:-0.677705 6:-0.747814 7:-0.747202 8:-0.704036 
512 1:1 2:0.135135 3:0.092437 4:-0.761062 5:-0.640517 6:-0.723605 7:-0.694536 8:-0.674141 
512 1:1 2:0.135135 3:0.092437 4:-0.743363 5:-0.647246 6:-0.725622 7:-0.611587 8:-0.703039 
512 1:1 2:0.135135 3:0.0756303 4:-0.752212 5:-0.651496 6:-0.757902 7:-0.744569 8:-0.622322 
512 1:1 2:0.162162 3:0.159664 4:-0.743363 5:-0.502391 6:-0.552118 7:-0.62607 8:-0.590433 
512 1:-1 2:0.189189 3:0.109244 4:-0.80531 5:-0.591642 6:-0.661063 7:-0.579987 8:-0.723966 
512 1:1 2:0.202703 3:0.193277 4:-0.80531 5:-0.634142 6:-0.710155 7:-0.760369 8:-0.636273 
512 1:1 2:0.202703 3:0.142857 4:-0.778761 5:-0.590225 6:-0.672495 7:-0.616853 8:-0.674141 
512 1:1 2:0.216216 3:0.176471 4:-0.743363 5:-0.508057 6:-0.591796 7:-0.597103 8:-0.584454 
512 1:1 2:0.216216 3:0.159664 4:-0.743363 5:-0.569683 6:-0.667787 7:-0.58262 8:-0.65421 
512 1:1 2:0.22973 3:0.260504 4:-0.752212 5:-0.52187 6:-0.600538 7:-0.747202 8:-0.544594 
512 1:1 2:0.22973 3:0.260504 4:-0.716814 5:-0.488224 6:-0.569603 7:-0.665569 8:-0.524664 
512 1:1 2:0.22973 3:0.142857 4:-0.769912 5:-0.594121 6:-0.669132 7:-0.698486 8:-0.638266 
512 1:1 2:0.22973 3:0.176471 4:-0.787611 5:-0.553745 6:-0.63618 7:-0.611587 8:-0.629297 
512 1:1 2:0.243243 3:0.344538 4:-0.752212 5:-0.292013 6:-0.2885 7:-0.536537 8:-0.516692 
512 2:0.256757 3:0.243697 4:-0.716814 5:-0.331681 6:-0.507061 7:-0.473338 8:-0.415047 
512 1:1 2:0.256757 3:0.142857 4:-0.761062 5:-0.537099 6:-0.637525 7:-0.593153 8:-0.620329 
512 1:1 2:0.256757 3:0.12605 4:-0.778761 5:-0.55835 6:-0.661735 7:-0.585253 8:-0.624315 
512 1:1 2:0.27027 3:0.260504 4:-0.752212 5:-0.514787 6:-0.64963 7:-0.631336 8:-0.504733 
512 1:1 2:0.283784 3:0.327731 4:-0.769912 5:-0.431911 6:-0.547411 7:-0.631336 8:-0.544594 
512 1:-1 2:0.297297 3:0.277311 4:-0.752212 5:-0.470515 6:-0.542703 7:-0.568137 8:-0.576482 
512 1:-1 2:0.297297 3:0.193277 4:-0.778761 5:-0.577121 6:-0.685945 7:-0.615537 8:-0.616343 
512 1:-1 2:0.297297 3:0.159664 4:-0.769912 5:-0.500266 6:-0.554808 7:-0.583937 8:-0.644245 
512 1:1 2:0.297297 3:0.327731 4:-0.690265 5:-0.478661 6:-0.592468 7:-0.539171 8:-0.564524 
512 1:-1 2:0.297297 3:0.344538 4:-0.761062 5:-0.408536 6:-0.487559 7:-0.55102 8:-0.534629 
512 1:1 2:0.310811 3:0.310924 4:-0.707965 5:-0.412077 6:-0.536651 7:-0.529954 8:-0.446936 
512 1:-1 2:0.324324 3:0.210084 4:-0.778761 5:-0.528953 6:-0.595158 7:-0.59447 8:-0.63428 
512 1:1 2:0.324324 3:0.277311 4:-0.743363 5:-0.403223 6:-0.466711 7:-0.585253 8:-0.494768 
512 1:-1 2:0.324324 3:0.327731 4:-0.716814 5:-0.367452 6:-0.443174 7:-0.487821 8:-0.512706 
512 1:-1 2:0.337838 3:0.294118 4:-0.690265 5:-0.334514 6:-0.489576 7:-0.399605 8:-0.438964 
512 2:0.337838 3:0.294118 4:-0.787611 5:-0.432619 6:-0.487559 7:-0.599737 8:-0.536622 
512 1:-1 2:0.351351 3:0.327731 4:-0.769912 5:-0.445369 6:-0.573638 7:-0.493088 8:-0.55157 
512 1:-1 2:0.351351 3:0.327731 4:-0.725664 5:-0.309722 6:-0.335575 7:-0.436471 8:-0.534629 
512 2:0.351351 3:0.378151 4:-0.690265 5:-0.22295 6:-0.364492 7:-0.469388 8:-0.305431 
512 2:0.351351 3:0.260504 4:-0.725664 5:-0.437932 6:-0.532616 7:-0.494404 8:-0.564524 
512 1:-1 2:0.351351 3:0.411765 4:-0.743363 5:-0.394369 6:-0.508406 7:-0.545754 8:-0.466866 
512 2:0.364865 3:0.327731 4:-0.654867 5:-0.415973 6:-0.458642 7:-0.545754 8:-0.554559 
512 1:-1 2:0.364865 3:0.294118 4:-0.716814 5:-0.413848 6:-0.548756 7:-0.473338 8:-0.507723 
512 2:0.432432 3:0.344538 4:-0.743363 5:-0.390827 6:-0.552118 7:-0.478604 8:-0.405082 
512 1:-1 2:0.445946 3:0.428571 4:-0.752212 5:-0.271117 6:-0.412912 7:-0.312706 8:-0.464873 
512 2:0.445946 3:0.361345 4:-0.725664 5:-0.323535 6:-0.429052 7:-0.481238 8:-0.474838 
512 1:-1 2:0.459459 3:0.394958 4:-0.734513 5:-0.231096 6:-0.332213 7:-0.25609 8:-0.467862 
512 1:-1 2:0.472973 3:0.462185 4:-0.734513 5:-0.15495 6:-0.381977 7:-0.206057 8:-0.295466 
512 1:-1 2:0.472973 3:0.394958 4:-0.734513 5:-0.0741987 6:-0.211836 7:0.158657 8:-0.355257 
512 1:-1 2:0.486486 3:0.546218 4:-0.699115 5:-0.0586152 6:-0.231338 7:-0.210007 8:-0.283508 
512 1:-1 2:0.5 3:0.462185 4:-0.725664 5:-0.11422 6:-0.154001 7:-0.353522 8:-0.427005 
512 1:-1 2:0.527027 3:0.462185 4:-0.725664 5:-0.202054 6:-0.359785 7:-0.292956 8:-0.325361 
512 1:-1 2:0.567568 3:0.563025 4:-0.699115 5:-0.190721 6:-0.2885 7:-0.414088 8:-0.309417 
512 1:1 2:0.175676 3:0.344538 4:-0.761062 5:-0.515849 6:-0.61466 7:-0.595787 8:-0.597409 
512 1:-1 2:0.189189 3:0.159664 4:-0.752212 5:-0.552683 6:-0.613988 7:-0.619487 8:-0.668161 
512 2:0.22973 3:0.260504 4:-0.734513 5:-0.476536 6:-0.564223 7:-0.512837 8:-0.612357 
512 2:0.22973 3:0.176471 4:-0.769912 5:-0.551266 6:-0.64694 7:-0.589203 8:-0.63428 
512 2:0.310811 3:0.193277 4:-0.716814 5:-0.419515 6:-0.541358 7:-0.516787 8:-0.498754 
512 1:-1 2:0.324324 3:0.310924 4:-0.743363 5:-0.345847 6:-0.416947 7:-0.443055 8:-0.509716 
512 1:-1 2:0.364865 3:0.361345 4:-0.716814 5:-0.248451 6:-0.311365 7:-0.289006 8:-0.479821 
512 1:-1 2:0.581081 3:0.546218 4:-0.654867 5:0.107491 6:-0.0134499 7:-0.0717577 8:-0.233682 
512 1:-1 2:0.0135135 3:-0.00840336 4:-0.769912 5:-0.671684 6:-0.72226 7:-0.726136 8:-0.733931 
387.97576462589137 2:0.027027 3:0.00840336 4:1 5:-0.580662 6:-0.554808 7:-0.695853 8:-0.736921 
512 2:0.0810811 3:0.092437 4:-0.752212 5:-0.51337 6:-0.575656 7:-0.655036 8:-0.613353 
512 1:-1 2:0.108108 3:0.12605 4:-0.761062 5:-0.56437 6:-0.665098 7:-0.647136 8:-0.67713 
512 1:-1 2:0.148649 3:0.12605 4:-0.761062 5:-0.447848 6:-0.515804 7:-0.58657 8:-0.527653 
512 2:0.148649 3:0.092437 4:-0.752212 5:-0.551266 6:-0.628783 7:-0.624753 8:-0.647235 
512 1:-1 2:0.243243 3:0.226891 4:-0.778761 5:-0.478661 6:-0.523874 7:-0.502304 8:-0.645242 
512 2:0.243243 3:0.226891 4:-0.769912 5:-0.506287 6:-0.581036 7:-0.589203 8:-0.597409 
512 2:0.27027 3:0.260504 4:-0.716814 5:-0.403577 6:-0.470746 7:-0.512837 8:-0.542601 
512 1:-1 2:0.283784 3:0.193277 4:-0.769912 5:-0.384806 6:-0.402152 7:-0.444371 8:-0.578475 
512 2:0.324324 3:0.294118 4:-0.761062 5:-0.413494 6:-0.472764 7:-0.544437 8:-0.52865 
512 1:-1 2:0.364865 3:0.327731 4:-0.787611 5:-0.386223 6:-0.439139 7:-0.612903 8:-0.483807 
512 2:0.364865 3:0.277311 4:-0.734513 5:-0.407119 6:-0.532616 7:-0.456221 8:-0.620329 
512 1:-1 2:0.405405 3:0.378151 4:-0.734513 5:-0.350452 6:-0.418292 7:-0.536537 8:-0.480817 
512 2:0.445946 3:0.260504 4:-0.752212 5:-0.357535 6:-0.412239 7:-0.474654 8:-0.564524 
512 1:-1 2:0.445946 3:0.428571 4:-0.707965 5:-0.120595 6:-0.251513 7:-0.296906 8:-0.261584 
512 2:0.472973 3:0.462185 4:-0.716814 5:-0.253409 6:-0.338265 7:-0.358789 8:-0.45989 
512 1:-1 2:0.540541 3:0.478992 4:-0.734513 5:-0.144679 6:-0.190316 7:-0.415405 8:-0.327354 
512 1:-1 2:0.554054 3:0.495798 4:-0.752212 5:-0.124491 6:-0.172159 7:-0.381172 8:-0.365222 
512 2:0.162162 3:0.12605 4:-0.79646 5:-0.533912 6:-0.591796 7:-0.591837 8:-0.65421 
512 1:-1 2:-0.0540541 3:-0.0756303 4:-0.858407 5:-0.745706 6:-0.821116 7:-0.784068 8:-0.753861 
512 1:-1 2:0.0675676 3:-0.00840336 4:-0.823009 5:-0.663184 6:-0.747814 7:-0.768269 8:-0.65421 
206.03079857693274 1:-1 2:-0.189189 3:-0.210084 4:-0.823009 5:-0.805915 6:-0.843309 7:-0.852535 8:-0.833582 
512 1:-1 2:0.216216 3:0.176471 4:-0.769912 5:-0.492474 6:-0.562206 7:-0.481238 8:-0.65421 
512 2:0.0945946 3:0.092437 4:-0.787611 5:-0.570746 6:-0.637525 7:-0.631336 8:-0.63428 
512 1:-1 2:-0.0540541 3:-0.092437 4:-0.823009 5:-0.768018 6:-0.817754 7:-0.810402 8:-0.783757 
512 1:1 2:0.0810811 3:0.0252101 4:-0.80531 5:-0.678767 6:-0.763282 7:-0.747202 8:-0.714001 
512 1:-1 2:0.0675676 3:0.0756303 4:-0.79646 5:-0.699309 6:-0.774714 7:-0.802502 8:-0.704036 
512 1:-1 2:0.378378 3:0.344538 4:-0.752212 5:-0.314326 6:-0.37996 7:-0.514154 8:-0.415047 
512 1:-1 2:-0.0135135 3:-0.00840336 4:-0.80531 5:-0.676642 6:-0.732347 7:-0.768269 8:-0.743896 
512 2:-0.0135135 3:-0.0756303 4:-0.79646 5:-0.717726 6:-0.809011 7:-0.703752 8:-0.763827 
512 2:0.310811 3:0.243697 4:-0.778761 5:-0.341243 6:-0.515804 7:-0.440421 8:-0.335326 
512 1:-1 2:0.027027 3:-0.00840336 4:-0.814159 5:-0.717372 6:-0.789509 7:-0.782752 8:-0.733931 
512 2:-0.0810811 3:-0.092437 4:-0.79646 5:-0.756685 6:-0.812374 7:-0.799868 8:-0.783757 
512 1:-1 2:-0.0810811 3:-0.142857 4:-0.840708 5:-0.77156 6:-0.825824 7:-0.807768 8:-0.773792 
512 2:0.283784 3:0.394958 4:-0.734513 5:-0.366035 6:-0.494284 7:-0.516787 8:-0.425012 
512 1:-1 2:-0.189189 3:-0.159664 4:-0.840708 5:-0.77156 6:-0.813719 7:-0.852535 8:-0.813652 
512 2:0.445946 3:0.327731 4:-0.716814 5:-0.196742 6:-0.444519 7:-0.182357 8:-0.405082 
512 1:-1 2:0.135135 3:0.159664 4:-0.725664 5:-0.428723 6:-0.685945 7:-0.697169 8:-0.305431 
512 1:-1 3:-0.0420168 4:-0.787611 5:-0.684434 6:-0.741762 7:-0.728769 8:-0.743896 
512 2:0.202703 3:0.159664 4:-0.778761 5:-0.515141 6:-0.604573 7:-0.549704 8:-0.63428 
512 1:-1 2:-0.0675676 3:-0.0252101 4:-0.814159 5:-0.69683 6:-0.765972 7:-0.748519 8:-0.743896 
512 1:-1 2:-0.0675676 3:-0.0420168 4:-0.79646 5:-0.702851 6:-0.765972 7:-0.756419 8:-0.733931 
512 2:-0.0405405 3:-0.092437 4:-0.787611 5:-0.686205 6:-0.779422 7:-0.739302 8:-0.694071 
512 2:0.243243 3:0.361345 4:-0.743363 5:-0.443598 6:-0.544721 7:-0.473338 8:-0.604385 
512 2:0.283784 3:0.243697 4:-0.743363 5:-0.436869 6:-0.601883 7:-0.60632 8:-0.474838 
512 1:-1 2:-0.202703 3:-0.243697 4:-0.831858 5:-0.843811 6:-0.893073 7:-0.867018 8:-0.853513 
512 2:0.162162 3:0.159664 4:-0.707965 5:-0.485036 6:-0.64156 7:-0.593153 8:-0.504733 
512 2:0.310811 3:0.310924 4:-0.681416 5:-0.361785 6:-0.520511 7:-0.462804 8:-0.415047 
512 2:0.0405405 3:0.0252101 4:-0.79646 5:-0.664601 6:-0.718225 7:-0.724819 8:-0.684106 
512 2:0.0810811 3:0.092437 4:-0.761062 5:-0.657163 6:-0.767989 7:-0.816985 8:-0.63428 
512 1:-1 2:0.0405405 3:0.0756303 4:-0.752212 5:-0.639809 6:-0.743107 7:-0.726136 8:-0.59442 
512 2:0.0675676 3:0.0420168 4:-0.787611 5:-0.616788 6:-0.69267 7:-0.607637 8:-0.704036 
512 1:-1 2:-0.22973 3:-0.277311 4:-0.840708 5:-0.843811 6:-0.889711 7:-0.861751 8:-0.853513 
512 1:-1 2:0.202703 3:0.092437 4:-0.761062 5:-0.588808 6:-0.664425 7:-0.589203 8:-0.65421 
512 1:-1 2:-0.0405405 3:-0.0588235 4:-0.79646 5:-0.71383 6:-0.778077 7:-0.755102 8:-0.733931 
512 1:-1 2:-0.0135135 3:0.0756303 4:-0.769912 5:-0.656455 6:-0.697377 7:-0.747202 8:-0.694071 
512 1:1 2:0.108108 3:0.210084 4:-0.752212 5:-0.597308 6:-0.665098 7:-0.648453 8:-0.63428 
512 2:0.148649 3:0.142857 4:-0.734513 5:-0.495307 6:-0.566241 7:-0.545754 8:-0.61435 
512 2:-0.162162 3:-0.159664 4:-0.814159 5:-0.766602 6:-0.817754 7:-0.805135 8:-0.803687 
512 1:-1 2:0.0810811 3:0.0252101 4:-0.787611 5:-0.591996 6:-0.621385 7:-0.685319 8:-0.664175 
512 1:-1 2:0.0405405 3:0.0756303 4:-0.769912 5:-0.595183 6:-0.664425 7:-0.687953 8:-0.61435 
512 1:-1 2:-0.256757 3:-0.294118 4:-0.80531 5:-0.791394 6:-0.817754 7:-0.835418 8:-0.833582 
512 2:0.189189 3:0.226891 4:-0.761062 5:-0.555516 6:-0.62273 7:-0.666886 8:-0.574489 
512 2:0.0135135 3:0.0252101 4:-0.814159 5:-0.667434 6:-0.72764 7:-0.755102 8:-0.706029 
512 2:-0.0405405 3:-0.0420168 4:-0.80531 5:-0.730831 6:-0.794217 7:-0.749835 8:-0.78575 
512 1:-1 2:-0.783784 3:-0.798319 4:-0.955752 5:-0.984417 6:-0.98924 7:-0.98815 8:-0.988042 
512 2:0.527027 3:0.495798 4:-0.734513 5:-0.243138 6:-0.502354 7:-0.289006 8:-0.285501 
512 1:1 2:0.148649 3:0.142857 4:-0.787611 5:-0.621038 6:-0.710155 7:-0.715602 8:-0.647235 
512 1:-1 2:-0.283784 3:-0.327731 4:-0.831858 5:-0.85054 6:-0.892401 7:-0.911784 8:-0.863478 
512 1:-1 2:0.0810811 3:0.00840336 4:-0.778761 5:-0.673809 6:-0.751177 7:-0.719552 8:-0.714001 
512 1:-1 2:0.148649 3:0.00840336 4:-0.752212 5:-0.627413 6:-0.715535 7:-0.608953 8:-0.723966 
512 1:-1 2:-0.135135 3:-0.159664 4:-0.814159 5:-0.801665 6:-0.870208 7:-0.830151 8:-0.811659 
512 1:-1 2:-0.0135135 3:-0.092437 4:-0.858407 5:-0.708872 6:-0.807666 7:-0.734036 8:-0.743896 
512 1:-1 2:-0.0540541 3:-0.092437 4:-0.787611 5:-0.735435 6:-0.810356 7:-0.720869 8:-0.793722 
512 2:0.0675676 3:0.00840336 4:-0.681416 5:-0.689038 6:-0.796234 7:-0.694536 8:-0.733931 
512 1:-1 2:-0.0135135 3:-0.092437 4:-0.79646 5:-0.725164 6:-0.782112 7:-0.772219 8:-0.777778 
512 1:-1 2:-0.121622 3:-0.159664 4:-0.769912 5:-0.793519 6:-0.872226 7:-0.823568 8:-0.793722 
512 2:-0.310811 3:-0.310924 4:-0.858407 5:-0.859749 6:-0.917283 7:-0.869651 8:-0.863478 
512 1:1 2:-0.364865 3:-0.378151 4:-0.814159 5:-0.79706 6:-0.842636 7:-0.830151 8:-0.837569 
512 1:-1 2:0.0540541 3:0.0756303 4:-0.80531 5:-0.647246 6:-0.718897 7:-0.703752 8:-0.703039 
512 2:0.0540541 3:-0.00840336 4:-0.761062 5:-0.557641 6:-0.652993 7:-0.620803 8:-0.65421 
512 1:1 2:0.0675676 3:0.0588235 4:-0.80531 5:-0.607933 6:-0.665098 7:-0.698486 8:-0.678127 
512 1:-1 2:0.148649 3:0.159664 4:-0.769912 5:-0.454932 6:-0.503699 7:-0.579987 8:-0.582461 
512 1:1 2:0.162162 3:0.12605 4:-0.672566 5:-0.567558 6:-0.642233 7:-0.627386 8:-0.660189 
512 1:-1 2:0.216216 3:0.243697 4:-0.663717 5:-0.383744 6:-0.379287 7:-0.54707 8:-0.606378 
512 1:-1 2:0.256757 3:0.226891 4:-0.787611 5:-0.426598 6:-0.474109 7:-0.61817 8:-0.557549 
512 2:0.324324 3:0.294118 4:-0.734513 5:-0.305118 6:-0.399462 7:-0.381172 8:-0.507723 
512 1:-1 2:0.391892 3:0.344538 4:-0.716814 5:-0.229325 6:-0.32885 7:-0.418038 8:-0.421026 
512 1:-1 2:0.391892 3:0.428571 4:-0.716814 5:-0.107491 6:-0.236718 7:-0.283739 8:-0.335326 
512 2:0.418919 3:0.411765 4:-0.761062 5:0.0189481 6:-0.209818 7:-0.498354 8:-0.370204 
512 2:0.418919 3:0.495798 4:-0.725664 5:-0.0579069 6:-0.162744 7:-0.254773 8:-0.305431 
512 2:0.418919 3:0.445378 4:-0.707965 5:-0.193554 6:-0.211836 7:-0.428571 8:-0.428999 
512 2:0.662162 3:0.663866 4:-0.681416 5:0.173721 6:0.170814 7:-0.302172 8:-0.127055 
512 2:0.027027 3:-0.00840336 4:-0.787611 5:-0.678767 6:-0.739744 7:-0.726136 8:-0.728949 
512 1:-1 2:0.148649 3:0.0756303 4:-0.743363 5:-0.561183 6:-0.632818 7:-0.564187 8:-0.707025 
512 1:1 2:0.162162 3:0.109244 4:-0.787611 5:-0.576058 6:-0.679892 7:-0.627386 8:-0.63428 
512 1:-1 2:0.189189 3:0.142857 4:-0.787611 5:-0.543829 6:-0.618023 7:-0.64187 8:-0.660189 
512 1:-1 2:0.216216 3:0.210084 4:-0.761062 5:-0.43864 6:-0.471419 7:-0.503621 8:-0.600399 
512 1:-1 2:0.216216 3:0.243697 4:-0.778761 5:-0.426244 6:-0.458642 7:-0.552337 8:-0.61435 
512 1:-1 2:0.22973 3:0.193277 4:-0.752212 5:-0.519037 6:-0.585071 7:-0.628703 8:-0.63727 
512 2:0.22973 3:0.176471 4:-0.734513 5:-0.371702 6:-0.455952 7:-0.402238 8:-0.574489 
512 1:-1 2:0.256757 3:0.277311 4:-0.752212 5:-0.48114 6:-0.557498 7:-0.581303 8:-0.578475 
512 2:0.297297 3:0.243697 4:-0.752212 5:-0.319285 6:-0.409549 7:-0.411455 8:-0.524664 
512 2:0.337838 3:0.310924 4:-0.734513 5:-0.296618 6:-0.32347 7:-0.514154 8:-0.503737 
512 2:0.337838 3:0.277311 4:-0.752212 5:-0.393306 6:-0.476126 7:-0.485188 8:-0.54559 
512 1:-1 2:0.351351 3:0.327731 4:-0.725664 5:-0.32991 6:-0.424344 7:-0.458855 8:-0.486796 
512 2:0.364865 3:0.310924 4:-0.743363 5:-0.37241 6:-0.449899 7:-0.523371 8:-0.519681 
512 2:0.378378 3:0.327731 4:-0.716814 5:-0.360723 6:-0.456624 7:-0.418038 8:-0.537618 
512 1:-1 2:0.391892 3:0.378151 4:-0.752212 5:-0.260492 6:-0.369872 7:-0.308756 8:-0.478824 
512 2:0.405405 3:0.394958 4:-0.725664 5:-0.167345 6:-0.27236 7:-0.292956 8:-0.385152 
512 2:0.405405 3:0.378151 4:-0.734513 5:-0.238888 6:-0.340955 7:-0.421988 8:-0.430992 
512 2:0.418919 3:0.361345 4:-0.743363 5:-0.340889 6:-0.465367 7:-0.410138 8:-0.508719 
512 2:0.418919 3:0.361345 4:-0.734513 5:-0.126616 6:-0.190989 7:-0.279789 8:-0.425012 
512 1:-1 2:0.418919 3:0.361345 4:-0.734513 5:-0.118116 6:-0.283793 7:-0.281106 8:-0.425012 
512 1:-1 2:0.445946 3:0.428571 4:-0.734513 5:-0.187179 6:-0.242771 7:-0.279789 8:-0.476831 
512 1:-1 2:0.459459 3:0.394958 4:-0.725664 5:-0.151408 6:-0.317418 7:-0.158657 8:-0.421026 
512 2:0.472973 3:0.529412 4:-0.690265 5:-0.10147 6:-0.273033 7:-0.150757 8:-0.360239 
512 2:0.472973 3:0.411765 4:-0.716814 5:-0.0632194 6:-0.0780094 7:-0.387755 8:-0.350274 
512 2:0.486486 3:0.462185 4:-0.707965 5:-0.203117 6:-0.359785 7:-0.378539 8:-0.368211 
512 2:0.486486 3:0.462185 4:-0.690265 5:-0.216929 6:-0.398117 7:-0.431205 8:-0.286497 
512 2:0.5 3:0.478992 4:-0.743363 5:-0.18895 6:-0.267653 7:-0.300856 8:-0.428002 
512 1:-1 2:0.5 3:0.428571 4:-0.707965 5:-0.0904905 6:-0.188971 7:-0.287689 8:-0.305431 
512 1:-1 2:0.540541 3:0.462185 4:-0.716814 5:-0.115282 6:-0.281103 7:-0.120474 8:-0.372197 
512 2:0.554054 3:0.495798 4:-0.672566 5:0.0196565 6:-0.00470746 7:-0.223173 8:-0.323368 
512 1:-1 2:0.608108 3:0.563025 4:-0.663717 5:0.1592 6:0.0901143 7:-0.0296248 8:-0.223717 
512 1:-1 2:0.662162 3:0.630252 4:-0.672566 5:0.209846 6:0.0376597 7:0.0138249 8:-0.141006 
512 1:1 2:0.189189 3:0.159664 4:-0.778761 5:-0.581725 6:-0.644923 7:-0.691903 8:-0.668161 
512 1:-1 2:0.27027 3:0.226891 4:-0.743363 5:-0.450328 6:-0.497646 7:-0.59447 8:-0.59442 
512 1:1 2:0.297297 3:0.243697 4:-0.769912 5:-0.542412 6:-0.62004 7:-0.651086 8:-0.583458 
512 1:-1 2:0.324324 3:0.260504 4:-0.769912 5:-0.446078 6:-0.531271 7:-0.504937 8:-0.578475 
512 2:0.337838 3:0.327731 4:-0.681416 5:-0.358243 6:-0.461332 7:-0.429888 8:-0.494768 
512 1:-1 2:0.337838 3:0.327731 4:-0.761062 5:-0.278909 6:-0.26698 7:-0.464121 8:-0.504733 
512 2:0.337838 3:0.260504 4:-0.716814 5:-0.426952 6:-0.480161 7:-0.58262 8:-0.547583 
512 2:0.351351 3:0.428571 4:-0.734513 5:-0.366035 6:-0.431742 7:-0.499671 8:-0.508719 
512 1:-1 2:0.364865 3:0.344538 4:-0.769912 5:-0.39791 6:-0.449899 7:-0.54707 8:-0.554559 
512 2:0.378378 3:0.327731 4:-0.734513 5:-0.336993 6:-0.373235 7:-0.466754 8:-0.554559 
512 2:0.378378 3:0.277311 4:-0.752212 5:-0.508766 6:-0.586416 7:-0.661619 8:-0.555556 
512 1:-1 2:0.391892 3:0.394958 4:-0.734513 5:-0.391535 6:-0.445864 7:-0.569454 8:-0.506726 
512 1:-1 2:0.391892 3:0.361345 4:-0.752212 5:-0.290243 6:-0.33423 7:-0.431205 8:-0.484803 
512 2:0.391892 3:0.361345 4:-0.716814 5:-0.28493 6:-0.402824 7:-0.312706 8:-0.491779 
512 2:0.405405 3:0.378151 4:-0.734513 5:-0.221888 6:-0.273033 7:-0.564187 8:-0.474838 
512 1:-1 2:0.405405 3:0.394958 4:-0.707965 5:-0.216575 6:-0.340282 7:-0.389072 8:-0.336323 
512 1:-1 2:0.405405 3:0.361345 4:-0.752212 5:-0.39791 6:-0.434432 7:-0.407505 8:-0.550573 
512 1:-1 2:0.472973 3:0.462185 4:-0.725664 5:-0.222242 6:-0.322125 7:-0.349572 8:-0.385152 
512 2:0.486486 3:0.462185 4:-0.725664 5:-0.211617 6:-0.35037 7:-0.271889 8:-0.386148 
512 1:-1 2:0.540541 3:0.546218 4:-0.716814 5:-0.162387 6:-0.32078 7:-0.182357 8:-0.335326 
512 1:-1 2:0.540541 3:0.428571 4:-0.734513 5:-0.157075 6:-0.186954 7:-0.317972 8:-0.434978 
512 2:0.540541 3:0.563025 4:-0.681416 5:-0.0911989 6:-0.224613 7:-0.074391 8:-0.371201 
512 1:-1 2:0.554054 3:0.546218 4:-0.778761 5:-0.16522 6:-0.297243 7:-0.25609 8:-0.350274 
512 1:-1 2:0.554054 3:0.563025 4:-0.690265 5:-0.105012 6:-0.174176 7:-0.270573 8:-0.333333 
512 1:-1 2:0.554054 3:0.529412 4:-0.725664 5:-0.0047813 6:-0.0309348 7:-0.21659 8:-0.335326 
512 2:0.554054 3:0.462185 4:-0.725664 5:-0.206658 6:-0.268325 7:-0.400922 8:-0.394121 
512 2:0.594595 3:0.512605 4:-0.707965 5:-0.0458651 6:-0.196369 7:-0.16524 8:-0.285501 
512 1:-1 2:0.756757 3:0.663866 4:-0.646018 5:0.0681778 6:0.173504 7:0.121791 8:0.0104634 
512 1:1 2:-0.108108 3:-0.142857 4:-0.80531 5:-0.356827 6:-0.441829 7:-0.454905 8:-0.804684 
512 1:1 3:0.0252101 4:-0.80531 5:-0.701434 6:-0.756557 7:-0.799868 8:-0.723966 
512 1:1 2:0.108108 3:0.092437 4:-0.778761 5:-0.632017 6:-0.70343 7:-0.690586 8:-0.684106 
512 1:1 2:0.108108 3:0.0420168 4:-0.752212 5:-0.684434 6:-0.746469 7:-0.757735 8:-0.543597 
512 1:1 2:0.162162 3:0.109244 4:-0.778761 5:-0.579246 6:-0.671822 7:-0.745885 8:-0.584454 
512 2:0.189189 3:0.142857 4:-0.761062 5:-0.635913 6:-0.73033 7:-0.65372 8:-0.68012 
512 1:-1 2:0.189189 3:0.193277 4:-0.752212 5:-0.480432 6:-0.589106 7:-0.640553 8:-0.604385 
512 1:1 2:0.216216 3:0.109244 4:-0.769912 5:-0.571454 6:-0.6846 7:-0.672153 8:-0.61435 
512 2:0.27027 3:0.294118 4:-0.734513 5:-0.330264 6:-0.509079 7:-0.371955 8:-0.454908 
512 1:1 2:0.283784 3:0.378151 4:-0.734513 5:-0.33841 6:-0.354405 7:-0.54312 8:-0.517688 
512 2:0.297297 3:0.310924 4:-0.690265 5:-0.189304 6:-0.260256 7:-0.358789 8:-0.447932 
512 2:0.351351 3:0.277311 4:-0.725664 5:-0.365681 6:-0.447882 7:-0.389072 8:-0.544594 
512 2:0.364865 3:0.243697 4:-0.734513 5:-0.403577 6:-0.511096 7:-0.514154 8:-0.463876 
512 1:1 2:0.378378 3:0.226891 4:-0.743363 5:-0.524349 6:-0.61197 7:-0.647136 8:-0.564524 
512 2:0.378378 3:0.344538 4:-0.769912 5:-0.381264 6:-0.448554 7:-0.457538 8:-0.554559 
512 1:-1 2:0.391892 3:0.394958 4:-0.743363 5:-0.347264 6:-0.390047 7:-0.545754 8:-0.496761 
512 1:-1 2:0.418919 3:0.428571 4:-0.840708 5:-0.257659 6:-0.386685 7:-0.294273 8:-0.444943 
512 1:-1 2:0.418919 3:0.327731 4:-0.743363 5:-0.380202 6:-0.419637 7:-0.593153 8:-0.524664 
512 1:-1 2:0.418919 3:0.529412 4:-0.672566 5:-0.0911989 6:-0.181574 7:-0.278473 8:-0.375187 
512 2:0.472973 3:0.378151 4:-0.752212 5:-0.179387 6:-0.193679 7:-0.423305 8:-0.391131 
512 1:-1 2:0.554054 3:0.563025 4:-0.725664 5:-0.0324066 6:-0.169469 7:-0.242923 8:-0.275536 
512 2:0.581081 3:0.512605 4:-0.663717 5:-0.00655215 6:-0.160054 7:-0.112574 8:-0.256602 
512 2:0.621622 3:0.579832 4:-0.699115 5:0.210554 6:0.123739 7:-0.074391 8:-0.0563029 
512 2:0.702703 3:0.630252 4:-0.637168 5:0.243138 6:0.110289 7:0.0967742 8:-0.0842053 
512 1:-1 2:0.756757 3:0.731092 4:-0.663717 5:0.649371 6:0.683927 7:0.423305 8:0.0333832 
512 1:1 2:0.148649 3:0.0756303 4:-0.787611 5:-0.626704 6:-0.70074 7:-0.677419 8:-0.684106 
512 1:-1 2:0.202703 3:0.159664 4:-0.814159 5:-0.383744 6:-0.394082 7:-0.576037 8:-0.607374 
512 1:-1 2:0.243243 3:0.176471 4:-0.752212 5:-0.421994 6:-0.460659 7:-0.549704 8:-0.626308 
512 2:0.256757 3:0.226891 4:-0.752212 5:-0.432265 6:-0.490249 7:-0.526004 8:-0.584454 
512 2:0.256757 3:0.210084 4:-0.734513 5:-0.426598 6:-0.480161 7:-0.507571 8:-0.597409 
512 2:0.337838 3:0.243697 4:-0.769912 5:-0.447494 6:-0.504371 7:-0.541804 8:-0.61136 
512 1:-1 2:0.337838 3:0.226891 4:-0.752212 5:-0.381973 6:-0.441829 7:-0.56682 8:-0.504733 
512 1:-1 2:0.364865 3:0.310924 4:-0.716814 5:-0.304409 6:-0.3423 7:-0.472021 8:-0.464873 
512 2:0.364865 3:0.310924 4:-0.761062 5:-0.328493 6:-0.35037 7:-0.522054 8:-0.539611 
512 1:-1 2:0.391892 3:0.394958 4:-0.725664 5:-0.170179 6:-0.161399 7:-0.387755 8:-0.4858 
512 1:-1 2:0.391892 3:0.445378 4:-0.725664 5:-0.237471 6:-0.391392 7:-0.360105 8:-0.385152 
512 1:-1 2:0.405405 3:0.277311 4:-0.716814 5:-0.252701 6:-0.429052 7:-0.411455 8:-0.385152 
512 1:-1 2:0.418919 3:0.411765 4:-0.690265 5:-0.215158 6:-0.314728 7:-0.327189 8:-0.434978 
512 2:0.486486 3:0.445378 4:-0.716814 5:-0.113157 6:-0.206456 7:-0.319289 8:-0.308421 
512 2:0.540541 3:0.462185 4:-0.716814 5:-0.175137 6:-0.337592 7:-0.170507 8:-0.407075 
512 2:0.540541 3:0.462185 4:-0.716814 5:-0.191075 6:-0.326833 7:-0.24029 8:-0.367215 
512 1:1 2:0.0405405 3:0.0252101 4:-0.752212 5:-0.684788 6:-0.784802 7:-0.772219 8:-0.684106 
512 2:0.0540541 3:-0.00840336 4:-0.80531 5:-0.71206 6:-0.779422 7:-0.732719 8:-0.741903 
512 1:1 2:0.0675676 3:0.109244 4:-0.769912 5:-0.585621 6:-0.646268 7:-0.693219 8:-0.656203 
512 1:1 2:0.0810811 3:0.0756303 4:-0.80531 5:-0.651496 6:-0.717552 7:-0.714286 8:-0.695067 
512 1:1 2:0.148649 3:0.12605 4:-0.769912 5:-0.641934 6:-0.71688 7:-0.727452 8:-0.653214 
512 1:1 2:0.162162 3:0.243697 4:-0.778761 5:-0.568266 6:-0.671822 7:-0.639236 8:-0.604385 
512 1:1 2:0.162162 3:0.159664 4:-0.778761 5:-0.604392 6:-0.69805 7:-0.623436 8:-0.664175 
512 1:1 2:0.175676 3:0.159664 4:-0.743363 5:-0.59235 6:-0.690652 7:-0.624753 8:-0.650224 
512 1:1 2:0.175676 3:0.159664 4:-0.778761 5:-0.581016 6:-0.679892 7:-0.658986 8:-0.596413 
512 1:-1 2:0.202703 3:0.378151 4:-0.734513 5:-0.328139 6:-0.38803 7:-0.477288 8:-0.494768 
512 2:0.243243 3:0.310924 4:-0.778761 5:-0.383389 6:-0.440484 7:-0.477288 8:-0.524664 
512 1:1 2:0.27027 3:0.260504 4:-0.769912 5:-0.463432 6:-0.519839 7:-0.59842 8:-0.593423 
512 1:1 2:0.283784 3:0.277311 4:-0.707965 5:-0.431911 6:-0.544048 7:-0.490454 8:-0.516692 
512 1:1 2:0.283784 3:0.243697 4:-0.769912 5:-0.531078 6:-0.63887 7:-0.572087 8:-0.584454 
512 2:0.283784 3:0.277311 4:-0.752212 5:-0.473703 6:-0.534633 7:-0.54312 8:-0.55157 
512 1:1 2:0.310811 3:0.260504 4:-0.769912 5:-0.485745 6:-0.550101 7:-0.623436 8:-0.569507 
512 1:1 2:0.310811 3:0.277311 4:-0.769912 5:-0.451036 6:-0.525219 7:-0.545754 8:-0.560538 
512 1:1 2:0.351351 3:0.344538 4:-0.716814 5:-0.300514 6:-0.335575 7:-0.487821 8:-0.512706 
512 1:-1 2:0.351351 3:0.327731 4:-0.707965 5:-0.317514 6:-0.33154 7:-0.500987 8:-0.544594 
512 1:-1 2:0.364865 3:0.378151 4:-0.734513 5:-0.359306 6:-0.502354 7:-0.483871 8:-0.425012 
512 2:0.364865 3:0.327731 4:-0.699115 5:-0.313972 6:-0.380632 7:-0.390388 8:-0.508719 
512 2:0.364865 3:0.327731 4:-0.734513 5:-0.349743 6:-0.472764 7:-0.443055 8:-0.426009 
512 1:1 2:0.378378 3:0.327731 4:-0.761062 5:-0.395785 6:-0.490921 7:-0.508887 8:-0.484803 
512 1:-1 2:0.391892 3:0.495798 4:-0.734513 5:-0.192492 6:-0.349025 7:-0.303489 8:-0.315396 
512 1:1 2:0.391892 3:0.361345 4:-0.778761 5:-0.466619 6:-0.552118 7:-0.60632 8:-0.52865 
512 1:1 2:0.418919 3:0.310924 4:-0.761062 5:-0.349389 6:-0.402824 7:-0.465438 8:-0.498754 
512 2:0.418919 3:0.327731 4:-0.734513 5:-0.319639 6:-0.412912 7:-0.415405 8:-0.449925 
512 1:-1 2:0.432432 3:0.462185 4:-0.681416 5:-0.174783 6:-0.386685 7:-0.237656 8:-0.256602 
512 2:0.459459 3:0.546218 4:-0.761062 5:-0.207013 6:-0.268325 7:-0.394338 8:-0.425012 
512 2:0.472973 3:0.411765 4:-0.734513 5:-0.325305 6:-0.389375 7:-0.510204 8:-0.450922 
512 1:-1 2:0.5 3:0.596639 4:-0.681416 5:-0.0950947 6:-0.170141 7:-0.327189 8:-0.375187 
512 1:-1 2:0.5 3:0.529412 4:-0.699115 5:-0.159554 6:-0.340282 7:-0.194207 8:-0.309417 
512 2:0.513514 3:0.495798 4:-0.663717 5:-0.0876572 6:-0.203766 7:-0.199473 8:-0.301445 
512 1:1 2:0.608108 3:0.445378 4:-0.690265 5:-0.111387 6:-0.281103 7:-0.15339 8:-0.233682 
512 1:-1 2:0.608108 3:0.579832 4:-0.699115 5:-0.00938551 6:-0.0396772 7:-0.20474 8:-0.231689 
512 1:-1 2:0.608108 3:0.579832 4:-0.654867 5:0.0189481 6:-0.114324 7:-0.296906 8:-0.155954 
512 1:-1 2:0.108108 3:0.0420168 4:-0.725664 5:-0.272534 6:-0.431742 7:-0.399605 8:-0.379173 
512 1:-1 2:0.121622 3:0.00840336 4:-0.725664 5:-0.306534 6:-0.375925 7:-0.470704 8:-0.503737 
512 2:0.175676 3:0.0588235 4:-0.628319 5:-0.16345 6:-0.31809 7:-0.23239 8:-0.319382 
512 1:1 2:0.243243 3:0.159664 4:-0.761062 5:-0.452453 6:-0.506389 7:-0.453588 8:-0.593423 
512 2:0.391892 3:0.294118 4:-0.752212 5:-0.288118 6:-0.359112 7:-0.447005 8:-0.42003 
512 1:-1 2:0.405405 3:0.445378 4:-0.734513 5:-0.23393 6:-0.287828 7:-0.393022 8:-0.452915 
512 1:1 2:0.405405 3:0.260504 4:-0.707965 5:-0.304055 6:-0.392737 7:-0.456221 8:-0.45989 
512 1:-1 2:0.445946 3:0.411765 4:-0.690265 5:-0.276076 6:-0.451244 7:-0.314022 8:-0.361236 
512 1:-1 2:0.445946 3:0.445378 4:-0.699115 5:-0.0940322 6:-0.198386 7:-0.202107 8:-0.345291 
512 2:0.486486 3:0.462185 4:-0.80531 5:-0.196742 6:-0.293208 7:-0.497038 8:-0.42003 
512 2:0.513514 3:0.529412 4:-0.699115 5:-0.134762 6:-0.28581 7:-0.287689 8:-0.297459 
512 1:-1 2:0.527027 3:0.445378 4:-0.716814 5:-0.288826 6:-0.38803 7:-0.410138 8:-0.437967 
512 1:1 2:0.0135135 3:-0.0420168 4:-0.778761 5:-0.714893 6:-0.771352 7:-0.816985 8:-0.734928 
512 1:1 2:0.027027 3:0.00840336 4:-0.814159 5:-0.737914 6:-0.815736 7:-0.799868 8:-0.733931 
512 1:1 2:0.0405405 3:0.0588235 4:-0.80531 5:-0.72056 6:-0.801614 7:-0.776169 8:-0.713004 
512 1:1 2:0.0675676 3:0.0756303 4:-0.778761 5:-0.631309 6:-0.696705 7:-0.727452 8:-0.68012 
512 1:1 2:0.0810811 3:0.0756303 4:-0.80531 5:-0.678413 6:-0.756557 7:-0.740619 8:-0.684106 
511.92745249948558 1:1 2:0.135135 3:-0.0756303 4:-0.823009 5:-0.689747 6:-0.763282 7:-0.751152 8:-0.704036 
512 1:1 2:0.148649 3:0.092437 4:-0.761062 5:-0.627059 6:-0.697377 7:-0.677419 8:-0.586447 
512 1:1 2:0.189189 3:0.109244 4:-0.778761 5:-0.596246 6:-0.682582 7:-0.623436 8:-0.674141 
512 1:1 2:0.243243 3:0.226891 4:-0.743363 5:-0.513724 6:-0.634163 7:-0.60237 8:-0.530643 
512 1:-1 2:0.243243 3:0.193277 4:-0.787611 5:-0.517266 6:-0.581036 7:-0.565504 8:-0.686099 
512 1:-1 2:0.310811 3:0.327731 4:-0.743363 5:-0.36816 6:-0.478816 7:-0.449638 8:-0.476831 
512 1:1 2:0.324324 3:0.294118 4:-0.761062 5:-0.457411 6:-0.556826 7:-0.636603 8:-0.509716 
512 1:-1 2:0.351351 3:0.394958 4:-0.734513 5:-0.308305 6:-0.395427 7:-0.485188 8:-0.452915 
512 1:1 2:0.351351 3:0.260504 4:-0.769912 5:-0.475474 6:-0.61197 7:-0.473338 8:-0.564524 
512 1:1 2:0.351351 3:0.310924 4:-0.716814 5:-0.351514 6:-0.3961 7:-0.491771 8:-0.524664 
512 1:-1 2:0.391892 3:0.277311 4:-0.707965 5:-0.309722 6:-0.392737 7:-0.370639 8:-0.534629 
512 1:1 2:0.391892 3:0.394958 4:-0.743363 5:-0.311493 6:-0.392065 7:-0.379855 8:-0.427005 
512 1:-1 2:0.391892 3:0.176471 4:-0.734513 5:-0.397202 6:-0.562878 7:-0.312706 8:-0.514699 
512 1:-1 2:0.405405 3:0.428571 4:-0.752212 5:-0.355056 6:-0.450572 7:-0.520737 8:-0.427005 
512 2:0.405405 3:0.361345 4:-0.716814 5:-0.349035 6:-0.462677 7:-0.468071 8:-0.429995 
512 2:0.513514 3:0.462185 4:-0.725664 5:-0.190367 6:-0.359112 7:-0.202107 8:-0.37419 
512 1:-1 2:0.513514 3:0.495798 4:-0.681416 5:-0.183991 6:-0.408877 7:-0.391705 8:-0.231689 
512 2:0.527027 3:0.495798 4:-0.734513 5:-0.150345 6:-0.249496 7:-0.393022 8:-0.33433 
512 2:0.567568 3:0.462185 4:-0.716814 5:-0.148574 6:-0.267653 7:-0.312706 8:-0.360239 
512 1:-1 2:0.027027 3:-0.00840336 4:-0.80531 5:-0.676997 6:-0.732347 7:-0.709019 8:-0.7429 
512 1:-1 2:0.216216 3:0.159664 4:-0.769912 5:-0.560829 6:-0.64425 7:-0.61422 8:-0.636273 
512 2:0.22973 3:0.142857 4:-0.79646 5:-0.598725 6:-0.666443 7:-0.639236 8:-0.682113 
512 2:0.283784 3:0.260504 4:-0.734513 5:-0.537454 6:-0.64694 7:-0.680053 8:-0.562531 
512 1:-1 2:0.351351 3:0.428571 4:-0.734513 5:-0.330972 6:-0.415602 7:-0.315339 8:-0.503737 
512 1:-1 2:0.418919 3:0.378151 4:-0.681416 5:-0.156366 6:-0.309348 7:-0.171824 8:-0.394121 
512 2:0.0675676 3:0.0252101 4:-0.823009 5:-0.668142 6:-0.781439 7:-0.766952 8:-0.726956 
512 1:-1 2:0.175676 3:0.210084 4:-0.743363 5:-0.469453 6:-0.558171 7:-0.518104 8:-0.598406 
512 2:0.216216 3:0.159664 4:-0.769912 5:-0.505932 6:-0.582381 7:-0.656353 8:-0.558545 
512 2:0.283784 3:0.243697 4:-0.752212 5:-0.327076 6:-0.342972 7:-0.489138 8:-0.567514 
512 1:-1 2:0.310811 3:0.226891 4:-0.734513 5:-0.381264 6:-0.409549 7:-0.483871 8:-0.541604 
512 1:-1 2:0.351351 3:0.327731 4:-0.761062 5:-0.348681 6:-0.525219 7:-0.450955 8:-0.531639 
512 2:0.472973 3:0.445378 4:-0.725664 5:-0.155304 6:-0.314728 7:-0.287689 8:-0.301445 
-512 1:-1 2:0.027027 3:0.0420168 4:-0.831858 5:-0.63733 6:-0.699395 7:-0.735352 8:-0.704036 
-512 1:-1 2:-0.0135135 3:0.0420168 4:-0.778761 5:-0.635913 6:-0.7115 7:-0.701119 8:-0.694071 
-512 2:0.27027 3:0.243697 4:-0.778761 5:-0.457411 6:-0.605918 7:-0.607637 8:-0.484803 
-512 2:0.216216 3:0.092437 4:-0.752212 5:-0.571808 6:-0.740417 7:-0.612903 8:-0.584454 
-512 1:-1 2:-0.0405405 3:-0.00840336 4:-0.80531 5:-0.71383 6:-0.776059 7:-0.788018 8:-0.733931 
-512 1:-1 2:0.121622 3:0.092437 4:-0.761062 5:-0.61785 6:-0.70881 7:-0.751152 8:-0.624315 
-512 2:0.243243 3:0.176471 4:-0.743363 5:-0.516557 6:-0.634835 7:-0.55102 8:-0.59442 
-512 2:0.0675676 3:0.00840336 4:-0.823009 5:-0.664601 6:-0.776059 7:-0.789335 8:-0.63428 
-512 1:-1 2:0.148649 3:0.159664 4:-0.769912 5:-0.530724 6:-0.654338 7:-0.651086 8:-0.524664 
-512 2:-0.0135135 3:-0.0420168 4:-0.823009 5:-0.681955 6:-0.748487 7:-0.772219 8:-0.743896 
-512 1:-1 2:-0.243243 3:-0.243697 4:-0.831858 5:-0.827519 6:-0.872898 7:-0.838051 8:-0.853513 
-512 1:1 2:-0.175676 3:-0.260504 4:-0.823009 5:-0.841686 6:-0.893746 7:-0.872284 8:-0.833582 
-512 2:0.324324 3:0.294118 4:-0.725664 5:-0.335931 6:-0.426362 7:-0.437788 8:-0.464873 
-512 2:0.459459 3:0.428571 4:-0.707965 5:-0.178679 6:-0.311365 7:-0.20869 8:-0.395117 
-512 1:-1 2:0.432432 3:0.411765 4:-0.681416 5:-0.338056 6:-0.471419 7:-0.424621 8:-0.415047 
-512 1:-1 2:0.351351 3:0.243697 4:-0.752212 5:-0.389764 6:-0.472764 7:-0.403555 8:-0.604385 
-512 2:0.351351 3:0.310924 4:-0.761062 5:-0.375952 6:-0.488904 7:-0.465438 8:-0.484803 
-512 2:0.283784 3:0.243697 4:-0.761062 5:-0.398265 6:-0.514459 7:-0.485188 8:-0.464873 
-512 1:-1 2:0.108108 3:0.0252101 4:-0.769912 5:-0.61785 6:-0.65232 7:-0.748519 8:-0.684106 
-512 2:0.0675676 3:0.0252101 4:-0.787611 5:-0.663184 6:-0.718225 7:-0.723502 8:-0.704036 
-512 2:0.22973 3:0.193277 4:-0.769912 5:-0.508057 6:-0.595158 7:-0.491771 8:-0.604385 
-512 2:0.0810811 3:0.12605 4:-0.787611 5:-0.625642 6:-0.71419 7:-0.697169 8:-0.664175 
-512 2:0.432432 3:0.327731 4:-0.654867 5:-0.223659 6:-0.354405 7:-0.238973 8:-0.375187 
-512 2:0.418919 3:0.411765 4:-0.734513 5:-0.287763 6:-0.406187 7:-0.419355 8:-0.444943 
-512 1:-1 2:0.324324 3:0.243697 4:-0.761062 5:-0.426598 6:-0.542703 7:-0.560237 8:-0.494768 
-512 1:-1 2:0.297297 3:0.294118 4:-0.734513 5:-0.466619 6:-0.588433 7:-0.599737 8:-0.484803 
-512 2:0.0810811 3:0.0756303 4:-0.778761 5:-0.591642 6:-0.62811 7:-0.777485 8:-0.694071 
-512 1:-1 2:0.283784 3:0.277311 4:-0.743363 5:-0.404285 6:-0.560188 7:-0.497038 8:-0.494768 
-512 1:-1 2:0.22973 3:0.210084 4:-0.752212 5:-0.488578 6:-0.583726 7:-0.560237 8:-0.59442 
-512 2:0.202703 3:0.193277 4:-0.725664 5:-0.486453 6:-0.609953 7:-0.518104 8:-0.534629 
-512 2:0.148649 3:0.159664 4:-0.778761 5:-0.528599 6:-0.650303 7:-0.655036 8:-0.564524 
-512 2:0.27027 3:0.193277 4:-0.778761 5:-0.510182 6:-0.60121 7:-0.616853 8:-0.584454 
-512 2:0.22973 3:0.210084 4:-0.79646 5:-0.582433 6:-0.687962 7:-0.583937 8:-0.644245 
-512 2:0.121622 3:0.0756303 4:-0.761062 5:-0.567558 6:-0.6577 7:-0.732719 8:-0.564524 
-512 1:-1 2:-0.0135135 3:-0.0420168 4:-0.814159 5:-0.716664 6:-0.825824 7:-0.749835 8:-0.674141 
-512 2:0.189189 3:0.243697 4:-0.752212 5:-0.458828 6:-0.592468 7:-0.54707 8:-0.494768 
-512 2:0.324324 3:0.310924 4:-0.725664 5:-0.416327 6:-0.542703 7:-0.460171 8:-0.509716 
-512 2:0.283784 3:0.327731 4:-0.743363 5:-0.476536 6:-0.604573 7:-0.623436 8:-0.471849 
-512 1:-1 2:0.310811 3:0.344538 4:-0.725664 5:-0.436869 6:-0.544048 7:-0.500987 8:-0.519681 
-512 1:-1 2:0.0810811 3:0.0756303 4:-0.769912 5:-0.63485 6:-0.72226 7:-0.694536 8:-0.664175 
-512 2:0.121622 3:0.092437 4:-0.778761 5:-0.612538 6:-0.671822 7:-0.718236 8:-0.656203 
-512 1:-1 2:0.0405405 3:-0.00840336 4:-0.787611 5:-0.636621 6:-0.700067 7:-0.716919 8:-0.691081 
-512 1:-1 2:0.189189 3:0.176471 4:-0.769912 5:-0.489995 6:-0.570948 7:-0.656353 8:-0.584454 
-512 2:0.364865 3:0.344538 4:-0.699115 5:-0.358597 6:-0.498319 7:-0.439105 8:-0.434978 
-512 2:0.432432 3:0.445378 4:-0.716814 5:-0.135824 6:-0.2885 7:-0.323239 8:-0.444943 
-512 2:0.472973 3:0.411765 4:-0.690265 5:-0.281388 6:-0.415602 7:-0.437788 8:-0.355257 
-512 2:0.5 3:0.428571 4:-0.716814 5:-0.152116 6:-0.293208 7:-0.119157 8:-0.375187 
-512 2:0.175676 3:0.159664 4:-0.752212 5:-0.424473 6:-0.383995 7:-0.483871 8:-0.61435 
-512 1:-1 2:0.148649 3:0.176471 4:-0.725664 5:-0.454578 6:-0.535978 7:-0.597103 8:-0.514699 
-512 2:0.162162 3:0.193277 4:-0.734513 5:-0.545245 6:-0.618023 7:-0.619487 8:-0.584454 
-512 1:-1 2:0.310811 3:0.327731 4:-0.716814 5:-0.348327 6:-0.420309 7:-0.532587 8:-0.484803 
-512 2:0.148649 3:0.159664 4:-0.743363 5:-0.555162 6:-0.686617 7:-0.615537 8:-0.544594 
-0.33703323093298199 2:0.121622 3:0.0420168 4:-0.743363 5:-0.551974 6:-0.73302 7:-0.573404 8:-0.564524 
-512 2:-0.0810811 3:-0.092437 4:-0.814159 5:-0.732247 6:-0.786819 7:-0.794602 8:-0.763827 
-512 2:0.108108 3:0.142857 4:-0.716814 5:-0.533912 6:-0.66846 7:-0.664253 8:-0.534629 
-512 1:-1 2:0.0675676 3:0.0252101 4:-0.761062 5:-0.646538 6:-0.777404 7:-0.698486 8:-0.674141 
-512 2:0.0675676 3:-0.00840336 4:-0.743363 5:-0.63485 6:-0.749832 7:-0.676103 8:-0.644245 
-512 3:0.00840336 4:-0.734513 5:-0.657871 6:-0.757902 7:-0.672153 8:-0.694071 
-512 1:1 2:-0.0540541 3:0.092437 4:-0.814159 5:-0.770143 6:-0.828514 7:-0.794602 8:-0.803687 
-512 2:0.22973 3:0.210084 4:-0.716814 5:-0.446786 6:-0.60659 7:-0.585253 8:-0.514699 
-512 1:1 2:-0.0135135 3:-0.00840336 4:-0.761062 5:-0.693288 6:-0.757229 7:-0.782752 8:-0.753861 
-512 1:1 2:-0.256757 3:-0.310924 4:-0.849558 5:-0.878165 6:-0.906523 7:-0.910467 8:-0.883408 
-512 1:1 2:-0.337838 3:-0.361345 4:-0.858407 5:-0.889145 6:-0.915938 7:-0.915734 8:-0.903338 
-512 2:0.405405 3:0.344538 4:-0.725664 5:-0.250221 6:-0.310693 7:-0.431205 8:-0.405082 
-512 2:0.391892 3:0.411765 4:-0.716814 5:-0.221179 6:-0.359112 7:-0.328506 8:-0.415047 
-512 2:0.256757 3:0.411765 4:-0.725664 5:-0.344077 6:-0.471419 7:-0.490454 8:-0.484803 
-512 2:0.337838 3:0.294118 4:-0.778761 5:-0.388702 6:-0.507061 7:-0.54707 8:-0.464873 
-512 2:0.0405405 3:0.092437 4:-0.769912 5:-0.548787 6:-0.597848 7:-0.599737 8:-0.684106 
-512 1:-1 2:0.202703 3:0.327731 4:-0.734513 5:-0.367452 6:-0.515131 7:-0.511521 8:-0.534629 
-512 2:0.0135135 3:0.0252101 4:-0.778761 5:-0.6476 6:-0.72764 7:-0.737986 8:-0.664175 
-512 2:0.189189 3:0.243697 4:-0.761062 5:-0.497078 6:-0.642905 7:-0.57867 8:-0.504733 
-512 1:-1 2:0.108108 3:0.142857 4:-0.752212 5:-0.555516 6:-0.694015 7:-0.666886 8:-0.554559 
-512 1:-1 2:0.22973 3:0.277311 4:-0.725664 5:-0.506287 6:-0.613988 7:-0.581303 8:-0.59442 
-512 2:0.135135 3:0.159664 4:-0.725664 5:-0.544891 6:-0.675857 7:-0.652403 8:-0.59442 
-512 2:0.243243 3:0.277311 4:-0.716814 5:-0.427307 6:-0.577001 7:-0.528637 8:-0.524664 
-512 1:-1 2:0.121622 3:0.142857 4:-0.752212 5:-0.612538 6:-0.70343 7:-0.665569 8:-0.704036 
-512 2:0.0675676 3:0.0252101 4:-0.769912 5:-0.66708 6:-0.756557 7:-0.701119 8:-0.704036 
-512 1:-1 2:0.283784 3:0.193277 4:-0.778761 5:-0.462724 6:-0.664425 7:-0.57077 8:-0.61435 
-512 1:-1 2:0.337838 3:0.277311 4:-0.743363 5:-0.360014 6:-0.473436 7:-0.381172 8:-0.454908 
-512 1:-1 2:0.310811 3:0.294118 4:-0.752212 5:-0.313618 6:-0.405514 7:-0.462804 8:-0.474838 
-512 1:-1 2:0.0135135 3:-0.00840336 4:-0.823009 5:-0.741101 6:-0.804304 7:-0.734036 8:-0.763827 
-512 1:-1 2:-0.162162 3:-0.142857 4:-0.823009 5:-0.799894 6:-0.858104 7:-0.803818 8:-0.803687 
-512 1:-1 2:0.175676 3:0.159664 4:-0.769912 5:-0.545599 6:-0.638198 7:-0.56287 8:-0.59442 
-512 1:-1 2:0.148649 3:0.092437 4:-0.725664 5:-0.5796 6:-0.71419 7:-0.577354 8:-0.604385 
-512 1:-1 2:0.472973 3:0.411765 4:-0.672566 5:-0.0628652 6:-0.188299 7:-0.14549 8:-0.345291 
-512 1:-1 2:0.351351 3:0.344538 4:-0.743363 5:-0.1762 6:-0.219906 7:-0.402238 8:-0.405082 
-512 1:-1 2:0.472973 3:0.378151 4:-0.672566 5:-0.0989906 6:-0.222596 7:-0.194207 8:-0.365222 
-512 2:0.162162 3:0.0756303 4:-0.681416 5:-0.599079 6:-0.688635 7:-0.607637 8:-0.664175 
-512 1:-1 2:0.121622 3:0.12605 4:-0.752212 5:-0.50062 6:-0.62542 7:-0.425938 8:-0.644245 
-512 1:-1 2:0.445946 3:0.428571 4:-0.734513 5:-0.151408 6:-0.248151 7:-0.354839 8:-0.444943 
-89.769369321871551 2:0.378378 3:0.327731 4:-0.699115 5:-0.386223 6:-0.554136 7:-0.57077 8:-0.464873 
-512 1:-1 2:0.337838 3:0.361345 4:-0.752212 5:-0.326014 6:-0.400807 7:-0.457538 8:-0.514699 
-512 1:-1 2:0.364865 3:0.378151 4:-0.743363 5:-0.373118 6:-0.408877 7:-0.565504 8:-0.474838 
-512 2:0.364865 3:0.344538 4:-0.787611 5:-0.241013 6:-0.357095 7:-0.281106 8:-0.474838 
-512 1:-1 2:0.5 3:0.462185 4:-0.663717 5:-0.167345 6:-0.337592 7:-0.115207 8:-0.434978 
-512 2:0.378378 3:0.327731 4:-0.716814 5:-0.238534 6:-0.329523 7:-0.24424 8:-0.504733 
-512 1:-1 2:0.243243 3:0.226891 4:-0.743363 5:-0.441119 6:-0.557498 7:-0.503621 8:-0.504733 
-512 1:-1 2:0.108108 3:0.159664 4:-0.761062 5:-0.531787 6:-0.580363 7:-0.640553 8:-0.604385 
-512 1:-1 2:0.0675676 3:0.0756303 4:-0.787611 5:-0.607225 6:-0.697377 7:-0.680053 8:-0.61435 
-512 1:-1 2:0.27027 3:0.243697 4:-0.761062 5:-0.403223 6:-0.499664 7:-0.448321 8:-0.534629 
-512 1:-1 2:0.256757 3:0.226891 4:-0.725664 5:-0.478307 6:-0.528581 7:-0.601053 8:-0.574489 
-512 1:-1 2:0.0405405 3:0.092437 4:-0.761062 5:-0.659996 6:-0.722932 7:-0.678736 8:-0.714001 
-512 1:-1 2:0.121622 3:0.226891 4:-0.778761 5:-0.570037 6:-0.679892 7:-0.623436 8:-0.564524 
-512 1:1 2:-0.0810811 3:-0.092437 4:-0.823009 5:-0.773685 6:-0.794889 7:-0.844635 8:-0.793722 
-512 1:-1 2:0.0810811 3:0.0756303 4:-0.778761 5:-0.581371 6:-0.628783 7:-0.698486 8:-0.644245 
-512 2:0.0675676 3:0.0756303 4:-0.778761 5:-0.603683 6:-0.662408 7:-0.640553 8:-0.644245 
-512 1:1 2:-0.148649 3:-0.142857 4:-0.823009 5:-0.787498 6:-0.845326 7:-0.832785 8:-0.773792 
-512 2:0.148649 3:0.142857 4:-0.752212 5:-0.494599 6:-0.575656 7:-0.537854 8:-0.524664 
-512 1:-1 2:0.243243 3:0.294118 4:-0.734513 5:-0.522224 6:-0.657028 7:-0.635286 8:-0.484803 
-512 1:-1 2:0.378378 3:0.344538 4:-0.734513 5:-0.302284 6:-0.415602 7:-0.454905 8:-0.385152 
-512 2:0.189189 3:0.210084 4:-0.752212 5:-0.510182 6:-0.582381 7:-0.601053 8:-0.604385 
-512 2:0.216216 3:0.294118 4:-0.734513 5:-0.40464 6:-0.505716 7:-0.478604 8:-0.524664 
-512 1:-1 2:0.391892 3:0.445378 4:-0.787611 5:-0.356118 6:-0.476799 7:-0.522054 8:-0.425012 
-512 1:-1 2:0.297297 3:0.327731 4:-0.743363 5:-0.353285 6:-0.463349 7:-0.353522 8:-0.434978 
-512 1:-1 2:0.378378 3:0.411765 4:-0.787611 5:-0.332035 6:-0.449899 7:-0.444371 8:-0.444943 
-512 2:0.364865 3:0.361345 4:-0.787611 5:-0.29768 6:-0.379287 7:-0.373272 8:-0.444943 
-512 1:-1 2:0.27027 3:0.294118 4:-0.787611 5:-0.394723 6:-0.533961 7:-0.549704 8:-0.524664 
-512 1:-1 2:0.27027 3:0.193277 4:-0.752212 5:-0.558704 6:-0.701412 7:-0.579987 8:-0.534629 
-512 1:1 2:0.121622 3:0.092437 4:-0.787611 5:-0.626704 6:-0.710155 7:-0.635286 8:-0.694071 
-512 2:0.121622 3:0.12605 4:-0.761062 5:-0.591642 6:-0.669805 7:-0.677419 8:-0.604385 
-512 1:1 2:-0.0135135 3:-0.0252101 4:-0.823009 5:-0.742164 6:-0.837256 7:-0.763002 8:-0.763827 
-512 1:-1 2:0.148649 3:0.193277 4:-0.734513 5:-0.532495 6:-0.62273 7:-0.640553 8:-0.564524 
-512 1:1 2:-0.162162 3:-0.159664 4:-0.831858 5:-0.822915 6:-0.878278 7:-0.856485 8:-0.823617 
-512 1:1 2:-0.22973 3:-0.260504 4:-0.80531 5:-0.836019 6:-0.873571 7:-0.863068 8:-0.833582 
-512 1:1 2:-0.135135 3:-0.193277 4:-0.823009 5:-0.809102 6:-0.821116 7:-0.915734 8:-0.833582 
-512 2:-0.0945946 3:-0.092437 4:-0.814159 5:-0.743935 6:-0.787492 7:-0.798552 8:-0.763827 
-512 2:0.324324 3:0.344538 4:-0.734513 5:-0.420223 6:-0.510424 7:-0.58262 8:-0.484803 
-512 2:0.324324 3:0.462185 4:-0.725664 5:-0.346556 6:-0.456624 7:-0.423305 8:-0.494768 
-512 2:0.540541 3:0.663866 4:-0.690265 5:-0.0865947 6:-0.234701 7:-0.199473 8:-0.345291 
-512 1:-1 2:0.351351 3:0.394958 4:-0.752212 5:-0.408181 6:-0.532616 7:-0.544437 8:-0.524664 
-512 1:1 2:-0.0810811 3:-0.142857 4:-0.80531 5:-0.791394 6:-0.835911 7:-0.851218 8:-0.804684 
-512 2:0.216216 3:0.193277 4:-0.761062 5:-0.499557 6:-0.607263 7:-0.599737 8:-0.534629 
-512 1:-1 2:-0.175676 3:-0.226891 4:-0.823009 5:-0.812644 6:-0.846671 7:-0.840685 8:-0.853513 
-512 2:0.189189 3:0.176471 4:-0.787611 5:-0.543829 6:-0.61197 7:-0.631336 8:-0.650224 
-512 2:0.202703 3:0.176471 4:-0.787611 5:-0.557287 6:-0.645595 7:-0.628703 8:-0.642252 
-512 1:-1 2:0.337838 3:0.378151 4:-0.778761 5:-0.400035 6:-0.492266 7:-0.536537 8:-0.524664 
-512 2:0.364865 3:0.361345 4:-0.734513 5:-0.296264 6:-0.424344 7:-0.443055 8:-0.484803 
-512 1:-1 2:0.5 3:0.428571 4:-0.743363 5:-0.28493 6:-0.431742 7:-0.377222 8:-0.395117 
-512 1:-1 2:0.256757 3:0.226891 4:-0.761062 5:-0.429432 6:-0.532616 7:-0.528637 8:-0.534629 
-512 1:-1 2:0.391892 3:0.344538 4:-0.743363 5:-0.241367 6:-0.362475 7:-0.500987 8:-0.434978 
-512 2:0.432432 3:0.445378 4:-0.707965 5:-0.285638 6:-0.416274 7:-0.450955 8:-0.405082 
-512 2:0.364865 3:0.294118 4:-0.681416 5:-0.396494 6:-0.508406 7:-0.57077 8:-0.514699 
-512 1:-1 2:0.310811 3:0.277311 4:-0.681416 5:-0.371702 6:-0.517149 7:-0.464121 8:-0.504733 
-512 2:0.027027 3:-0.00840336 4:-0.752212 5:-0.634142 6:-0.704102 7:-0.668203 8:-0.733931 
-512 2:0.121622 3:0.092437 4:-0.743363 5:-0.525058 6:-0.666443 7:-0.524687 8:-0.584454 
-512 2:0.337838 3:0.310924 4:-0.725664 5:-0.482203 6:-0.622058 7:-0.58262 8:-0.534629 
-512 2:0.337838 3:0.327731 4:-0.716814 5:-0.313264 6:-0.468056 7:-0.329822 8:-0.484803 
-512 1:1 2:0.22973 3:0.226891 4:-0.672566 5:-0.468744 6:-0.599193 7:-0.59052 8:-0.59442 
-512 2:0.0405405 3:0.00840336 4:-0.769912 5:-0.676997 6:-0.743107 7:-0.723502 8:-0.743896 
-512 1:1 2:0.0675676 3:0.0588235 4:-0.787611 5:-0.668142 6:-0.753194 7:-0.723502 8:-0.694071 
-512 1:1 2:0.0675676 3:0.0588235 4:-0.752212 5:-0.648309 6:-0.71957 7:-0.678736 8:-0.714001 
-512 1:1 2:0.0540541 3:0.092437 4:-0.769912 5:-0.67983 6:-0.746469 7:-0.790652 8:-0.694071 
-512 1:1 2:0.202703 3:0.176471 4:-0.752212 5:-0.59235 6:-0.732347 7:-0.619487 8:-0.646238 
-512 2:-0.189189 3:-0.210084 4:-0.79646 5:-0.809811 6:-0.876261 7:-0.827518 8:-0.826607 
-512 2:0.148649 3:0.0756303 4:-0.752212 5:-0.573579 6:-0.675857 7:-0.628703 8:-0.646238 
-512 2:-0.0135135 3:0.00840336 4:-0.79646 5:-0.707455 6:-0.788164 7:-0.757735 8:-0.741903 
-512 1:-1 2:-0.0675676 3:-0.092437 4:-0.79646 5:-0.79706 6:-0.866846 7:-0.851218 8:-0.776781 
-512 2:-0.175676 3:-0.210084 4:-0.814159 5:-0.819373 6:-0.868191 7:-0.867018 8:-0.833582 
-512 1:-1 2:-0.337838 3:-0.361345 4:-0.867257 5:-0.89127 6:-0.922663 7:-0.901251 8:-0.905331 
-512 2:0.324324 3:0.327731 4:-0.716814 5:-0.438286 6:-0.516476 7:-0.591837 8:-0.544594 
-512 1:1 2:0.297297 3:0.243697 4:-0.681416 5:-0.381619 6:-0.504371 7:-0.473338 8:-0.494768 
-512 1:1 2:0.310811 3:0.294118 4:-0.707965 5:-0.434744 6:-0.550773 7:-0.544437 8:-0.504733 
-512 1:1 2:0.0945946 3:0.0588235 4:-0.787611 5:-0.63733 6:-0.72226 7:-0.656353 8:-0.694071 
-512 1:1 2:0.148649 3:0.109244 4:-0.734513 5:-0.557641 6:-0.650975 7:-0.56287 8:-0.684106 
-512 1:1 2:0.216216 3:0.176471 4:-0.734513 5:-0.438286 6:-0.587761 7:-0.461488 8:-0.494768 
-512 1:1 2:0.202703 3:0.159664 4:-0.743363 5:-0.533912 6:-0.642233 7:-0.723502 8:-0.564524 
-512 1:1 2:0.189189 3:0.159664 4:-0.787611 5:-0.53462 6:-0.637525 7:-0.529954 8:-0.664175 
-512 2:0.0810811 3:-0.00840336 4:-0.79646 5:-0.681247 6:-0.770679 7:-0.759052 8:-0.694071 
-512 2:0.27027 3:0.210084 4:-0.734513 5:-0.481849 6:-0.62542 7:-0.572087 8:-0.567514 
-512 2:0.0675676 3:0.00840336 4:-0.769912 5:-0.614308 6:-0.731675 7:-0.669519 8:-0.63428 
-512 1:-1 2:-0.256757 3:-0.327731 4:-0.884956 5:-0.874624 6:-0.906523 7:-0.899934 8:-0.883408 
-512 1:1 2:0.108108 3:0.00840336 4:-0.769912 5:-0.589871 6:-0.671822 7:-0.65372 8:-0.668161 
-512 1:1 2:-0.027027 3:-0.0756303 4:-0.778761 5:-0.71383 6:-0.774714 7:-0.723502 8:-0.811659 
-512 2:-0.0945946 3:-0.109244 4:-0.79646 5:-0.727289 6:-0.779422 7:-0.736669 8:-0.806677 
-512 1:1 2:0.0135135 3:-0.00840336 4:-0.752212 5:-0.665663 6:-0.718897 7:-0.714286 8:-0.748879 
-512 1:1 2:0.0135135 3:-0.0252101 4:-0.761062 5:-0.687622 6:-0.735709 7:-0.770902 8:-0.768809 
-512 1:1 2:0.445946 3:0.411765 4:-0.734513 5:-0.316805 6:-0.443847 7:-0.474654 8:-0.315396 
-512 2:0.445946 3:0.411765 4:-0.752212 5:-0.198867 6:-0.291863 7:-0.381172 8:-0.305431 
-512 1:1 2:0.310811 3:0.243697 4:-0.752212 5:-0.351514 6:-0.462677 7:-0.481238 8:-0.484803 
-512 2:0.378378 3:0.277311 4:-0.690265 5:-0.305826 6:-0.455952 7:-0.344305 8:-0.464873 
-512 1:1 2:0.364865 3:0.310924 4:-0.734513 5:-0.373473 6:-0.486214 7:-0.450955 8:-0.494768 
-512 1:1 2:0.283784 3:0.243697 4:-0.734513 5:-0.430494 6:-0.495629 7:-0.55102 8:-0.514699 
-512 1:1 2:0.0405405 3:0.00840336 4:-0.752212 5:-0.651851 6:-0.710827 7:-0.651086 8:-0.773792 
-512 2:-0.0945946 3:-0.159664 4:-0.823009 5:-0.744289 6:-0.767989 7:-0.830151 8:-0.783757 
-512 1:1 2:0.135135 3:0.12605 4:-0.778761 5:-0.530016 6:-0.619368 7:-0.57472 8:-0.604385 
-512 1:1 2:0.202703 3:0.243697 4:-0.699115 5:-0.519391 6:-0.624748 7:-0.54312 8:-0.61435 
-512 2:0.283784 3:0.193277 4:-0.743363 5:-0.414556 6:-0.585071 7:-0.499671 8:-0.504733 
-512 1:-1 2:0.0135135 3:-0.0588235 4:-0.752212 5:-0.673809 6:-0.780767 7:-0.801185 8:-0.704036 
-512 2:-0.108108 3:-0.142857 4:-0.787611 5:-0.782185 6:-0.815736 7:-0.848585 8:-0.813652 
-512 1:1 2:0.175676 3:0.159664 4:-0.734513 5:-0.473703 6:-0.616005 7:-0.560237 8:-0.534629 
-512 1:1 2:0.216216 3:0.193277 4:-0.690265 5:-0.382327 6:-0.519166 7:-0.456221 8:-0.59442 
-512 1:-1 2:0.243243 3:0.226891 4:-0.734513 5:-0.505932 6:-0.65501 7:-0.59842 8:-0.524664 
-512 1:1 2:0.243243 3:0.226891 4:-0.743363 5:-0.345493 6:-0.466039 7:-0.483871 8:-0.504733 
-512 2:-0.162162 3:-0.12605 4:-0.80531 5:-0.798831 6:-0.836584 7:-0.834101 8:-0.836572 
-512 2:-0.148649 3:-0.176471 4:-0.823009 5:-0.813706 6:-0.856759 7:-0.843318 8:-0.830593 
-512 1:1 2:0.0675676 3:-0.0252101 4:-0.79646 5:-0.655392 6:-0.731675 7:-0.716919 8:-0.672147 
-512 1:1 2:0.189189 3:0.12605 4:-0.752212 5:-0.607933 6:-0.732347 7:-0.702436 8:-0.557549 
-512 1:1 2:-0.0540541 3:-0.0252101 4:-0.778761 5:-0.700372 6:-0.786147 7:-0.791968 8:-0.696064 
-512 1:1 2:0.108108 3:0.0588235 4:-0.769912 5:-0.676997 6:-0.757902 7:-0.703752 8:-0.731938 
-512 1:-1 2:-0.202703 3:-0.226891 4:-0.823009 5:-0.839915 6:-0.910558 7:-0.823568 8:-0.841555 
-512 1:-1 2:-0.256757 3:-0.294118 4:-0.840708 5:-0.875686 6:-0.924008 7:-0.890718 8:-0.867464 
-512 2:-0.0135135 3:-0.0252101 4:-0.699115 5:-0.71206 6:-0.799597 7:-0.784068 8:-0.701046 
-512 1:1 2:0.135135 3:0.0588235 4:-0.778761 5:-0.663184 6:-0.752522 7:-0.815668 8:-0.666168 
-512 1:1 2:0.0135135 3:-0.00840336 4:-0.743363 5:-0.629538 6:-0.720915 7:-0.737986 8:-0.673144 
-512 1:-1 2:-0.0810811 3:-0.0252101 4:-0.761062 5:-0.727643 6:-0.829186 7:-0.816985 8:-0.708022 
-512 2:0.0675676 3:0.00840336 4:-0.752212 5:-0.694705 6:-0.796234 7:-0.751152 8:-0.70005 
-512 1:-1 2:-0.27027 3:-0.327731 4:-0.858407 5:-0.881707 6:-0.920646 7:-0.889401 8:-0.895366 
-512 1:1 2:0.108108 3:0.092437 4:-0.752212 5:-0.524703 6:-0.70881 7:-0.658986 8:-0.61435 
-512 2:0.148649 3:0.109244 4:-0.79646 5:-0.520808 6:-0.605245 7:-0.63792 8:-0.61435 
-512 2:0.148649 3:0.109244 4:-0.814159 5:-0.648663 6:-0.759919 7:-0.712969 8:-0.664175 
-512 1:1 2:0.0540541 3:0.0252101 4:-0.814159 5:-0.648663 6:-0.713517 7:-0.695853 8:-0.723966 
-512 2:0.216216 3:0.176471 4:-0.716814 5:-0.535328 6:-0.64425 7:-0.705069 8:-0.554559 
-512 2:-0.0540541 3:-0.0588235 4:-0.831858 5:-0.773331 6:-0.839274 7:-0.840685 8:-0.753861 
-512 1:1 2:0.22973 3:0.210084 4:-0.743363 5:-0.332743 6:-0.484196 7:-0.514154 8:-0.474838 
-512 1:-1 2:-0.283784 3:-0.294118 4:-0.849558 5:-0.871436 6:-0.897781 7:-0.880184 8:-0.873443 
-512 1:-1 2:0.0405405 3:0.0420168 4:-0.778761 5:-0.670622 6:-0.746469 7:-0.752469 8:-0.688092 
-512 1:1 2:-0.0135135 3:-0.0252101 4:-0.787611 5:-0.656455 6:-0.737054 7:-0.716919 8:-0.684106 
-512 2:0.175676 3:0.159664 4:-0.769912 5:-0.595183 6:-0.706792 7:-0.64187 8:-0.61435 
-512 1:1 3:-0.0756303 4:-0.787611 5:-0.755622 6:-0.839946 7:-0.780118 8:-0.793722 
-512 1:1 2:0.0405405 3:-0.00840336 4:-0.787611 5:-0.655392 6:-0.741762 7:-0.724819 8:-0.694071 
-512 1:1 2:0.0675676 3:-0.00840336 4:-0.769912 5:-0.67133 6:-0.753194 7:-0.740619 8:-0.714001 
-512 2:-0.202703 3:-0.243697 4:-0.80531 5:-0.838144 6:-0.874243 7:-0.878868 8:-0.853513 
-512 2:-0.0810811 3:-0.0420168 4:-0.769912 5:-0.741101 6:-0.804976 7:-0.768269 8:-0.763827 
-512 2:-0.175676 3:-0.159664 4:-0.814159 5:-0.802373 6:-0.860794 7:-0.839368 8:-0.823617 
-512 1:1 2:0.0135135 3:0.00840336 4:-0.787611 5:-0.70958 6:-0.847344 7:-0.826201 8:-0.684106 
-512 2:-0.135135 3:-0.193277 4:-0.831858 5:-0.842394 6:-0.896436 7:-0.859118 8:-0.843548 
-512 1:-1 2:0.027027 3:-0.00840336 4:-0.787611 5:-0.658934 6:-0.757229 7:-0.62212 8:-0.684106 
-512 2:0.108108 3:0.092437 4:-0.734513 5:-0.572871 6:-0.7115 7:-0.632653 8:-0.644245 
-512 2:0.0135135 3:-0.00840336 4:-0.743363 5:-0.617142 6:-0.763954 7:-0.677419 8:-0.65421 
-512 1:-1 2:0.0810811 3:0.109244 4:-0.743363 5:-0.564016 6:-0.685272 7:-0.716919 8:-0.574489 
-512 2:0.148649 3:0.092437 4:-0.725664 5:-0.537454 6:-0.677875 7:-0.624753 8:-0.59442 
-512 1:-1 2:0.121622 3:0.12605 4:-0.734513 5:-0.595537 6:-0.698722 7:-0.674786 8:-0.664175 
-512 2:0.148649 3:0.0756303 4:-0.79646 5:-0.580308 6:-0.752522 7:-0.611587 8:-0.624315 
-512 1:-1 2:0.108108 3:0.0588235 4:-0.752212 5:-0.595892 6:-0.726967 7:-0.628703 8:-0.65421 
-512 1:-1 2:0.175676 3:0.159664 4:-0.752212 5:-0.539933 6:-0.67115 7:-0.56287 8:-0.63428 
-512 2:0.243243 3:0.159664 4:-0.734513 5:-0.431557 6:-0.551446 7:-0.441738 8:-0.584454 
-512 1:-1 2:0.216216 3:0.159664 4:-0.699115 5:-0.483974 6:-0.626093 7:-0.460171 8:-0.61435 
-512 1:-1 2:0.148649 3:0.0756303 4:-0.734513 5:-0.550912 6:-0.66039 7:-0.619487 8:-0.624315 
-512 2:-0.0405405 3:-0.092437 4:-0.79646 5:-0.727643 6:-0.802959 7:-0.720869 8:-0.783757 
-512 2:-0.0405405 3:-0.0588235 4:-0.787611 5:-0.686913 6:-0.792872 7:-0.699803 8:-0.723966 
-512 2:-0.135135 3:-0.12605 4:-0.814159 5:-0.752435 6:-0.841964 7:-0.761685 8:-0.764823 
-512 1:-1 2:-0.162162 3:-0.226891 4:-0.814159 5:-0.795644 6:-0.837929 7:-0.820935 8:-0.8286 
-512 2:0.0945946 3:0.109244 4:-0.761062 5:-0.621746 6:-0.746469 7:-0.627386 8:-0.658196 
-512 1:-1 2:-0.135135 3:-0.193277 4:-0.79646 5:-0.777581 6:-0.839274 7:-0.844635 8:-0.78276 
-512 1:-1 2:-0.0810811 3:-0.092437 4:-0.752212 5:-0.706039 6:-0.794889 7:-0.734036 8:-0.715994 
-512 1:-1 2:-0.351351 3:-0.344538 4:-0.840708 5:-0.857624 6:-0.918628 7:-0.903884 8:-0.844544 
-512 2:-0.27027 3:-0.310924 4:-0.840708 5:-0.85479 6:-0.897108 7:-0.886768 8:-0.850523 
-512 1:-1 2:-0.22973 3:-0.193277 4:-0.769912 5:-0.80556 6:-0.880968 7:-0.851218 8:-0.802691 
-512 1:-1 2:-0.189189 3:-0.176471 4:-0.823009 5:-0.826811 6:-0.861466 7:-0.876234 8:-0.837569 
-512 1:-1 2:0.0540541 3:0.0252101 4:-0.858407 5:-0.655746 6:-0.744452 7:-0.672153 8:-0.694071 
-512 2:0.121622 3:0.0252101 4:-0.80531 5:-0.646892 6:-0.784802 7:-0.719552 8:-0.61435 
-512 1:-1 2:-0.121622 3:-0.159664 4:-0.849558 5:-0.791039 6:-0.856086 7:-0.815668 8:-0.803687 
-512 2:0.0945946 3:0.0756303 4:-0.814159 5:-0.629538 6:-0.707465 7:-0.686636 8:-0.694071 
-512 2:0.202703 3:0.159664 4:-0.787611 5:-0.539933 6:-0.650303 7:-0.470704 8:-0.674141 
-512 1:-1 2:0.27027 3:0.226891 4:-0.769912 5:-0.378785 6:-0.498319 7:-0.55497 8:-0.544594 
-512 1:-1 2:0.162162 3:0.092437 4:-0.769912 5:-0.536745 6:-0.696032 7:-0.531271 8:-0.564524 
-512 1:-1 2:0.175676 3:0.12605 4:-0.778761 5:-0.536391 6:-0.648958 7:-0.518104 8:-0.65421 
-512 1:-1 2:0.202703 3:0.109244 4:-0.79646 5:-0.527537 6:-0.680565 7:-0.548387 8:-0.59442 
-512 2:0.202703 3:0.176471 4:-0.778761 5:-0.545599 6:-0.67653 7:-0.544437 8:-0.584454 
-512 1:-1 3:-0.0252101 4:-0.840708 5:-0.732601 6:-0.809011 7:-0.806452 8:-0.753861 
-512 2:0.243243 3:0.226891 4:-0.734513 5:-0.479724 6:-0.626765 7:-0.511521 8:-0.574489 
-512 2:0.175676 3:0.12605 4:-0.814159 5:-0.567912 6:-0.749832 7:-0.60632 8:-0.61435 
-512 1:-1 2:0.108108 3:0.00840336 4:-0.787611 5:-0.613954 6:-0.712172 7:-0.576037 8:-0.723966 
-512 1:-1 2:0.337838 3:0.294118 4:-0.725664 5:-0.210908 6:-0.359112 7:-0.391705 8:-0.464873 
-512 2:0.283784 3:0.260504 4:-0.725664 5:-0.445369 6:-0.612643 7:-0.403555 8:-0.538615 
-512 1:-1 2:0.162162 3:0.109244 4:-0.743363 5:-0.521516 6:-0.683927 7:-0.529954 8:-0.604385 
-512 1:-1 2:0.121622 3:0.092437 4:-0.752212 5:-0.549141 6:-0.691325 7:-0.627386 8:-0.61435 
-512 1:-1 2:0.0540541 3:-0.00840336 4:-0.752212 5:-0.593767 6:-0.73033 7:-0.605003 8:-0.624315 
-512 2:0.0675676 3:0.0252101 4:-0.743363 5:-0.621038 6:-0.769334 7:-0.639236 8:-0.61435 
-512 1:-1 2:0.162162 3:0.109244 4:-0.734513 5:-0.547016 6:-0.670477 7:-0.601053 8:-0.574489 
-512 2:0.108108 3:0.0756303 4:-0.761062 5:-0.607579 6:-0.742434 7:-0.655036 8:-0.667165 
-512 1:-1 2:0.22973 3:0.193277 4:-0.725664 5:-0.494599 6:-0.624075 7:-0.557604 8:-0.576482 
-512 2:-0.0540541 3:-0.0252101 4:-0.80531 5:-0.74181 6:-0.833221 7:-0.788018 8:-0.769806 
-512 1:-1 2:0.0405405 3:-0.0420168 4:-0.761062 5:-0.650788 6:-0.778749 7:-0.693219 8:-0.63428 
-512 1:-1 2:0.0135135 3:-0.0588235 4:-0.778761 5:-0.754206 6:-0.841291 7:-0.723502 8:-0.773792 
-512 1:-1 2:0.189189 3:0.092437 4:-0.761062 5:-0.532849 6:-0.61466 7:-0.449638 8:-0.694071 
-512 2:-0.0135135 3:-0.0420168 4:-0.769912 5:-0.704268 6:-0.795562 7:-0.697169 8:-0.743896 
-512 2:0.256757 3:0.226891 4:-0.752212 5:-0.431202 6:-0.505044 7:-0.54707 8:-0.584454 
-512 2:0.27027 3:0.294118 4:-0.761062 5:-0.350806 6:-0.424344 7:-0.470704 8:-0.529646 
-512 2:0.283784 3:0.327731 4:-0.734513 5:-0.381619 6:-0.514459 7:-0.539171 8:-0.451918 
-512 1:-1 2:0.324324 3:0.327731 4:-0.725664 5:-0.25093 6:-0.364492 7:-0.369322 8:-0.474838 
-512 1:-1 2:0.337838 3:0.277311 4:-0.769912 5:-0.467682 6:-0.531944 7:-0.539171 8:-0.616343 
-512 2:0.405405 3:0.428571 4:-0.734513 5:-0.215158 6:-0.33154 7:-0.400922 8:-0.345291 
-512 2:0.405405 3:0.378151 4:-0.752212 5:-0.213033 6:-0.305313 7:-0.358789 8:-0.395117 
-512 2:0.418919 3:0.411765 4:-0.725664 5:-0.144324 6:-0.123067 7:-0.55497 8:-0.364225 
-512 2:0.459459 3:0.563025 4:-0.734513 5:-0.0497609 6:-0.155346 7:-0.315339 8:-0.315396 
-512 2:0.513514 3:0.495798 4:-0.734513 5:-0.0267399 6:-0.127774 7:-0.0506912 8:-0.385152 
-512 1:-1 2:0.216216 3:0.159664 4:-0.752212 5:-0.482557 6:-0.552118 7:-0.58657 8:-0.664175 
-512 1:-1 2:0.337838 3:0.327731 4:-0.725664 5:-0.15495 6:-0.244788 7:-0.325872 8:-0.415047 
-512 1:-1 2:0.364865 3:0.344538 4:-0.734513 5:-0.284576 6:-0.330868 7:-0.444371 8:-0.437967 
-512 1:-1 2:0.391892 3:0.378151 4:-0.725664 5:-0.196742 6:-0.295898 7:-0.312706 8:-0.454908 
-512 2:0.405405 3:0.394958 4:-0.725664 5:-0.207367 6:-0.394082 7:-0.532587 8:-0.694071 
-512 2:0.405405 3:0.327731 4:-0.734513 5:-0.212325 6:-0.212508 7:-0.420671 8:-0.504733 
-512 1:-1 2:0.432432 3:0.394958 4:-0.707965 5:-0.129095 6:-0.190989 7:-0.311389 8:-0.42003 
-512 1:-1 2:0.445946 3:0.394958 4:-0.734513 5:-0.177971 6:-0.241426 7:-0.321922 8:-0.388142 
-512 1:-1 2:0.445946 3:0.411765 4:-0.725664 5:-0.174075 6:-0.256221 7:-0.371955 8:-0.346288 
-512 2:0.5 3:0.478992 4:-0.707965 5:-0.0752612 6:-0.195696 7:-0.253456 8:-0.375187 
-512 1:-1 2:0.513514 3:0.579832 4:-0.672566 5:-0.00513547 6:-0.0813719 7:-0.211323 8:-0.256602 
-512 1:-1 2:0.527027 3:0.512605 4:-0.725664 5:-0.00796883 6:-0.0531271 7:-0.302172 8:-0.335326 
-512 2:0.540541 3:0.495798 4:-0.725664 5:-0.136887 6:-0.174849 7:-0.379855 8:-0.368211 
-512 1:-1 2:0.540541 3:0.495798 4:-0.690265 5:-0.0533026 6:-0.149966 7:-0.213957 8:-0.307424 
-512 2:0.540541 3:0.495798 4:-0.716814 5:-0.11847 6:-0.264963 7:-0.140224 8:-0.405082 
-512 2:0.567568 3:0.529412 4:-0.690265 5:0.169116 6:0.143914 7:-0.115207 8:-0.199801 
-512 1:1 2:0.256757 3:0.226891 4:-0.752212 5:-0.529308 6:-0.581036 7:-0.63792 8:-0.625311 
-512 1:-1 2:0.283784 3:0.243697 4:-0.734513 5:-0.412431 6:-0.448554 7:-0.536537 8:-0.5715 
-512 2:0.351351 3:0.327731 4:-0.716814 5:-0.244909 6:-0.253531 7:-0.437788 8:-0.489786 
-512 1:1 2:0.351351 3:0.277311 4:-0.769912 5:-0.431202 6:-0.577001 7:-0.433838 8:-0.514699 
-512 1:-1 2:0.418919 3:0.378151 4:-0.725664 5:-0.281388 6:-0.31271 7:-0.352205 8:-0.554559 
-512 1:-1 2:0.432432 3:0.428571 4:-0.699115 5:-0.163095 6:-0.218561 7:-0.378539 8:-0.371201 
-512 1:-1 2:0.459459 3:0.361345 4:-0.699115 5:-0.253055 6:-0.353732 7:-0.285056 8:-0.464873 
-512 2:0.540541 3:0.428571 4:-0.699115 5:-0.197804 6:-0.29119 7:-0.332456 8:-0.395117 
-512 1:-1 2:0.554054 3:0.495798 4:-0.725664 5:-0.149991 6:-0.241426 7:-0.175774 8:-0.41704 
-512 1:-1 2:0.675676 3:0.697479 4:-0.672566 5:0.231096 6:0.188971 7:-0.0230415 8:-0.131041 
-512 1:-1 2:0.72973 3:0.613445 4:-0.663717 5:0.185408 6:0.194351 7:-0.17709 8:-0.165919 
-512 1:-1 2:0.756757 3:0.512605 4:-0.672566 5:0.399681 6:0.378615 7:0.119157 8:-0.105132 
-512 2:0.905405 3:0.932773 4:-0.619469 5:0.880645 6:1 7:0.311389 8:0.164923 
-512 1:1 2:0.0540541 3:-0.0420168 4:-0.80531 5:-0.756331 6:-0.809684 7:-0.809085 8:-0.777778 
-512 1:1 2:0.189189 3:0.226891 4:-0.761062 5:-0.497786 6:-0.548083 7:-0.62212 8:-0.59442 
-512 1:1 2:0.202703 3:0.159664 4:-0.769912 5:-0.588808 6:-0.687962 7:-0.64187 8:-0.644245 
-512 1:1 2:0.22973 3:0.226891 4:-0.725664 5:-0.427661 6:-0.365837 7:-0.709019 8:-0.620329 
-512 2:0.256757 3:0.226891 4:-0.743363 5:-0.388348 6:-0.420982 7:-0.572087 8:-0.569507 
-512 1:1 2:0.27027 3:0.260504 4:-0.734513 5:-0.48539 6:-0.595158 7:-0.655036 8:-0.495765 
-512 1:1 2:0.283784 3:0.260504 4:-0.743363 5:-0.442182 6:-0.497646 7:-0.55102 8:-0.558545 
-512 1:1 2:0.283784 3:0.277311 4:-0.752212 5:-0.467682 6:-0.559516 7:-0.591837 8:-0.539611 
-512 1:1 2:0.297297 3:0.260504 4:-0.725664 5:-0.477599 6:-0.579691 7:-0.623436 8:-0.444943 
-512 2:0.310811 3:0.310924 4:-0.725664 5:-0.134408 6:-0.252858 7:-0.152074 8:-0.465869 
-512 1:1 2:0.324324 3:0.294118 4:-0.690265 5:-0.382681 6:-0.444519 7:-0.448321 8:-0.584454 
-512 1:-1 2:0.324324 3:0.12605 4:-0.778761 5:-0.474411 6:-0.527909 7:-0.658986 8:-0.667165 
-512 1:1 2:0.337838 3:0.327731 4:-0.743363 5:-0.469453 6:-0.621385 7:-0.423305 8:-0.561535 
-512 1:-1 2:0.337838 3:0.277311 4:-0.699115 5:-0.383035 6:-0.487559 7:-0.519421 8:-0.463876 
-512 1:1 2:0.337838 3:0.294118 4:-0.769912 5:-0.458474 6:-0.534633 7:-0.531271 8:-0.600399 
-512 2:0.351351 3:0.226891 4:-0.761062 5:-0.394369 6:-0.381305 7:-0.61422 8:-0.579472 
-512 1:-1 2:0.351351 3:0.361345 4:-0.725664 5:-0.369577 6:-0.407532 7:-0.537854 8:-0.564524 
-512 1:-1 2:0.364865 3:0.361345 4:-0.725664 5:0.0182398 6:-0.0981843 7:-0.282423 8:-0.414051 
-512 1:-1 2:0.364865 3:0.344538 4:-0.761062 5:-0.437932 6:-0.456624 7:-0.561554 8:-0.596413 
-512 1:1 2:0.378378 3:0.411765 4:-0.716814 5:-0.257305 6:-0.35575 7:-0.385122 8:-0.434978 
-512 1:-1 2:0.378378 3:0.361345 4:-0.707965 5:-0.212679 6:-0.217888 7:-0.383805 8:-0.456901 
-512 1:-1 2:0.378378 3:0.394958 4:-0.707965 5:-0.00336462 6:0.0746469 7:-0.398288 8:-0.415047 
-512 1:-1 2:0.378378 3:0.411765 4:-0.734513 5:-0.247034 6:-0.286483 7:-0.477288 8:-0.428002 
-512 1:-1 2:0.391892 3:0.344538 4:-0.725664 5:-0.374181 6:-0.479489 7:-0.506254 8:-0.454908 
-512 2:0.405405 3:0.378151 4:-0.734513 5:-0.307243 6:-0.447882 7:-0.485188 8:-0.553563 
-512 2:0.405405 3:0.378151 4:-0.725664 5:-0.274659 6:-0.376597 7:-0.706386 8:-0.395117 
